svm_type c_svc
kernel_type rbf
gamma 0.05
nr_class 4
total_sv 46
rho -0.0013440666722586017 3.950364190226053E-4 0.35747185275258053 0.0017388745844277818 0.35864306925545403 0.3571276313815436
label 0 1 2 3
probA 7.443216358576244 8.766627027758128 7.966022756195853 8.0781706429793 9.42715439681244 9.52104623357221
probB -0.1253430673025509 -0.1269955172484234 3.576127921523518 -0.19460996460850338 4.446302352210165 4.1539511278980745
nr_sv 9 9 9 19
SV
0.9984842332727442 1.000885234896016 1.3577161485337519 0:61.54012670960635 1:45.778775609584 2:50.77250067803294 3:42.74371457948569 4:34.41902280058404 5:58.646695060151536 6:7.712525125242374 7:56.69909170035873 8:5.931501434865339 9:27.098046841639913 
0.9984889749599867 1.0000000007165086 1.3568364142725542 0:47.42631426159348 1:37.210470564401284 2:43.6851249588612 3:30.579601491853857 4:26.9610505294321 5:40.621953506881326 6:5.892025177197807 7:37.91079330670631 8:4.8814571410635335 9:11.953993494379132 
0.9992289198583921 1.0 1.3577161496103622 0:37.44000126682865 1:29.634854238619617 2:31.202742934493827 3:25.70495399608313 4:22.093903882544186 5:28.305357701100878 6:9.374915135232978 7:25.520420158008868 8:6.045720351192478 9:7.985128891934058 
0.9949521214276928 0.9973367026213917 1.3520317400812958 0:128.9991831823493 1:110.31462573355127 2:118.15512867109264 3:107.23563601686045 4:106.03233062119882 5:130.44297961746307 6:13.35346151931959 7:131.73317821008197 8:7.186132010487959 9:80.45316086836577 
0.9984640743235318 0.9999883103908533 1.3576928564160362 0:110.24681239634606 1:93.18794566363746 2:99.93034519868574 3:86.92974575571046 4:87.30747494148368 5:110.74850133953277 6:10.766596185739692 7:110.08923707154665 8:5.948287140329582 9:70.73529837308745 
0.9949317389248002 0.9973368247930297 1.3520338683660882 0:133.75381524184616 1:116.67327886220895 2:120.94522640940481 3:112.15870405380227 4:109.18824546404225 5:131.21851160715232 6:13.588109404963701 7:131.4208343668275 8:9.229220806682271 9:82.1385227468599 
0.9985113311306524 1.000000000008106 1.3577161406502634 0:125.12832131873797 1:109.6233733731803 2:115.57493327304309 3:102.20065960261603 4:102.76405587105793 5:121.27856170450649 6:17.462820917660746 7:119.04467155000695 8:3.012856562023359 9:73.90466728404496 
0.9991749937290089 1.0 1.356810632973621 0:113.09612161267438 1:100.39288110219007 2:104.57212969188556 3:89.77947318981279 4:94.68745862883466 5:110.2641637728738 6:10.9863916838749 7:109.33228563600517 8:4.110700506295912 9:62.50046634236273 
0.9984861659204981 1.0007945647002343 1.3577160428217947 0:137.99896367288991 1:122.06597019159817 2:127.70601610632292 3:113.92153150272044 4:117.1913337598476 5:134.72083342165917 6:24.580763618656896 7:133.78720361045526 8:4.570342306133678 9:84.76382607276939 
-1.0014769215055386 1.0019354785580294 1.3587615338427432 0:118.52546783911316 1:99.72631618549015 2:108.49105115114544 3:92.20988662571192 4:89.51954592106729 5:119.78939066797587 6:15.757702465515866 7:118.33013638553875 8:10.512046908897885 9:57.62359689038323 
-1.0015137561853726 1.0019601993566476 1.3582356908350635 0:78.64584448255843 1:64.21123562495187 2:72.04172368969647 3:56.66300413471606 4:55.01316611045071 5:76.95858789297759 6:10.78900400007987 7:74.29714345523082 8:8.552694282026428 9:24.598262190344446 
-1.0014886633341198 1.0019354785082648 1.3589792380682604 0:70.78339876841709 1:56.20807962260461 2:62.68576160863553 3:49.76054239559116 4:52.087417380493385 5:65.1996624594262 6:8.807076393915292 7:66.94043275186593 8:6.386279603416012 9:22.625456779058087 
-1.001492247827325 1.0019354785182413 1.35897923736556 0:162.75205468320345 1:141.03891271619128 2:144.8878295320468 3:131.63548814326765 4:134.4091915552427 5:166.4049065584737 6:20.35864528028092 7:165.02800906468454 8:4.3595027917264435 9:98.18545819727285 
-0.9858696745947821 0.986308488189606 1.3370883883304563 0:157.01764560916726 1:134.62358971260034 2:141.76469650433222 3:122.3150964519063 4:123.87289614118026 5:156.3208664334427 6:12.96327178742941 7:156.21343604699322 8:6.066706334389154 9:94.10526088319126 
-0.985836678258812 0.9862580831351516 1.3370293363461316 0:155.2577486801541 1:134.0031850272538 2:138.84280963653694 3:125.16225113813239 4:122.41132215890124 5:153.5219176467567 6:14.179825389220287 7:149.90631765956275 8:9.366770196012974 9:93.2703504511335 
-1.0007708570776621 1.001914152548734 1.3582326928614887 0:147.33477033053217 1:133.52669940617983 2:139.64644206734442 3:122.63426007493058 4:132.39135346990483 5:159.4037499280424 6:24.547426190260364 7:161.33087157438825 8:4.989177817013405 9:98.87901992153672 
-1.0015366340685279 1.001981194577991 1.358767237863043 0:165.18019561396383 1:145.70632699619753 2:152.2082098746297 3:139.69364783892345 4:147.7507298393331 5:171.70924129390426 6:23.24816125254304 7:173.8189226322099 8:3.474826281610561 9:110.98890232685936 
-1.000737120695167 1.0009567029728013 1.3586754849851865 0:152.35051253985878 1:137.571636374124 2:144.54320788756573 3:128.4006843334476 4:131.25715902561538 5:153.15699462272352 6:20.19552749992401 7:150.87374146386512 8:5.344927660308909 9:92.56463341523614 
-0.999107130487154 -0.9980113191850264 1.3574015186151287 0:47.71046014563495 1:42.69871404405791 2:43.364841917381405 3:32.127189498044714 4:30.72216454775073 5:54.61699485533621 6:11.831475310480894 7:50.041663601474255 8:14.178591371923218 9:27.591622233436006 
-0.9991072575154584 -0.9980322997883124 1.3573841006792184 0:44.99273930954836 1:34.37311170964591 2:40.5375419208756 3:25.17520321530681 4:23.902866687771805 5:49.178799936454105 6:12.010773129486488 7:47.43566000489902 8:15.176809567017195 9:23.22720235069696 
-1.0000000007165086 -0.9980397931455003 1.357394302563694 0:60.18261593424852 1:47.2788669030533 2:51.7123468469481 3:33.34083668277628 4:37.703685932299535 5:61.022550689864374 6:17.061751682488207 7:60.101993287274745 8:18.71245539195457 9:33.02298273862463 
-1.0 -0.9980397857095736 1.3564403932975297 0:137.42114459729032 1:101.56085023947547 2:117.2555612796354 3:87.65093101870316 4:106.4971235278326 5:159.31460943849703 6:31.09020932532615 7:155.35749381223854 8:31.962674329628772 9:80.1898407358704 
-1.0 -0.998039793151703 1.3564403877659406 0:121.99273007089377 1:80.93436665955817 2:97.09583673585607 3:69.11004993678212 4:81.06900146584012 5:149.78001204065234 6:34.05773810357932 7:150.4016607444445 8:41.79839766854742 9:66.4280781877167 
-0.9991178952957681 -0.9980397857095736 1.3564403877078863 0:103.23988193951834 1:63.70161073448592 2:80.28623907725644 3:53.05823714983658 4:47.609070327841664 5:109.35156696576406 6:31.50177308245047 7:107.09074077035807 8:40.117349494600504 9:54.04317231082464 
-0.9999062415387039 -0.9990034930346073 1.356436069963753 0:131.51554586629157 1:119.60722566669074 2:125.78548375464823 3:108.7863704633014 4:115.28766202959503 5:134.62809438930532 6:27.172369360572528 7:134.93109242059677 8:11.82645370674081 9:84.1952522531769 
-0.9999883103908533 -0.9990034929787971 1.357391275308474 0:127.05900169171187 1:117.65029025294697 2:121.95188177416136 3:103.4566614390846 4:108.45223365572247 5:127.30926261471083 6:28.849439921391998 7:125.81297651694638 8:11.859253660264214 9:83.89189372457754 
-0.9991148021816932 -0.998975493662373 1.3574117279860412 0:142.47426043906412 1:129.39919220746668 2:140.51451322767562 3:109.91988132015051 4:125.20990449063905 5:149.3711612149437 6:22.818142595607426 7:148.59025139469338 8:16.6690068150776 9:87.52176885605745 
-0.6422836503210344 -0.6412384601084935 -0.6426017149687502 0:40.6523510836903 1:49.744094124301185 2:57.10536492222594 3:47.434976680676826 4:22.98379269924889 5:55.16227397720806 6:10.545235256365823 7:57.17975103557247 8:9.336624403317646 9:14.234468938435645 
-0.6422827298463709 -0.6412327614056564 -0.6425882596237457 0:48.8735192950588 1:52.128822984098655 2:59.78531901270726 3:49.410795619744604 4:31.79440346820108 5:63.94996247246858 6:16.63485433622854 7:65.74036535510278 8:3.4797424288373557 9:19.52485497727073 
-0.6422747607388344 -0.6412246572256107 -0.6435546403775829 0:21.198662580033883 1:35.84549287085555 2:45.22044764040781 3:26.663343097907582 4:13.76486739959436 5:39.245899971753126 6:6.316002356348767 7:37.63404714981945 8:5.029909126549937 9:8.450283004578445 
-0.6422838333265989 -0.6410207618643177 -0.6425882593547789 0:65.650639770841 1:70.15548141007115 2:75.80918801352703 3:53.65471182322546 4:45.73984838388528 5:84.76506898849915 6:11.689442476143954 7:86.32271359512539 8:2.1401859892069712 9:36.345787986452514 
-0.6422386564111433 -0.6417930105121834 -0.6425882603586831 0:98.97362046392351 1:113.97117245381219 2:119.82752315498912 3:79.88207645930265 4:76.45457777181016 5:144.4005654237477 6:13.774839017451232 7:142.98317137938275 8:3.5346062099327376 9:54.46047307459569 
-0.6422827394395374 -0.6417643090974401 -0.6426044044279434 0:91.07756007702142 1:105.50297424794337 2:115.49826937907696 3:80.8889604393519 4:70.70726701334327 5:128.34591570532362 6:17.925129593936973 7:127.75255553543253 8:3.603753652531328 9:45.11710264752712 
-0.642238656411233 -0.6412295617453396 -0.6426044039297524 0:108.04693265918608 1:108.08838770793089 2:112.57414453357667 3:91.18251170460131 4:79.94353206685676 5:114.11801471924664 6:14.858645456428958 7:110.62753335298297 8:2.1541177119463 9:48.2341349292098 
-0.6422836531011813 -0.6412384628830298 -0.6435596122921136 0:89.82233626519505 1:94.74355722185084 2:102.36194442803301 3:81.34716579394097 4:76.45720745778195 5:104.90868144010203 6:16.51013582881106 7:109.92130124917152 8:7.1432263520656765 9:52.714017961427736 
-0.6422838333552131 -0.6412384661588999 -0.642606077500223 0:120.7078066911077 1:114.74676967924532 2:125.41199369606674 3:109.85815564110287 4:100.72307713753811 5:143.23768603336538 6:19.41126398197747 7:140.85686283662383 8:6.323935904322287 9:74.87224433586707 
-0.6422386564111433 -0.6412295617427173 -0.6435596067024703 0:150.54514165033189 1:149.86947771121268 2:150.5274927662959 3:119.31503206814952 4:98.77786345360975 5:157.1967943892066 6:21.888356958367645 7:144.09918880646384 8:3.5494459249640724 9:82.59748178993746 
-0.6422386564111435 -0.6410207625948068 -0.6425990335975953 0:160.06326580819047 1:158.10693697889343 2:163.93993441075926 3:134.49440998918152 4:116.98778477586404 5:170.12015013609818 6:18.519714647887312 7:163.92736289409444 8:2.9246829229171336 9:85.05887601265378 
-0.6431635868254904 -0.6412384661491307 -0.642588258942848 0:39.0622923076035 1:55.301160189675485 2:56.60614517467275 3:34.426528233285715 4:26.22325355756968 5:41.81761700097093 6:7.827694365457053 7:42.61012057969186 8:2.182171961157229 9:15.486027366153541 
-0.6422790323033105 -0.6412248542165124 -0.6425834831719426 0:29.297202047334235 1:37.44772958454438 2:43.98424804332268 3:32.892695239300984 4:21.910054259603264 5:36.92551806863645 6:8.011688400170677 7:34.798640311405826 8:2.1115081253382995 9:14.847956745147327 
-0.642280657129359 -0.64123639570965 -0.6425969591681233 0:21.059669020189435 1:34.83014453689485 2:39.43810772534432 3:28.10451144123765 4:18.45847110175599 5:30.01064343654299 6:8.358968965872934 7:26.99423841083222 8:3.485459444152787 9:9.576740706577459 
-0.6429438178903484 -0.6415717855909204 -0.6423806095051477 0:47.63625476887058 1:61.67268683087419 2:60.71424335245271 3:40.17385554395801 4:27.842341668152173 5:55.59985162068838 6:6.385026087816984 7:52.321713184784855 8:4.915625156988918 9:21.625029082845593 
-0.6429410618352345 -0.6415369835625271 -0.6423843072603401 0:42.31831946841885 1:59.634047935685736 2:60.74543743936575 3:33.76459878353065 4:25.57724562341724 5:61.35829493224493 6:6.3124912580150285 7:58.14376434653549 8:2.9418938537603445 9:18.49095689205265 
-0.6422827394390864 -0.6412326476055351 -0.6426044039293023 0:54.265754751054345 1:71.60398143068224 2:74.65722922024025 3:52.0011110246045 4:35.52301225741316 5:51.04343174013769 6:4.894727120584239 7:49.196626420513304 8:2.6850516304656873 9:26.74461026208537 
-0.6422838102691034 -0.6412384661584916 -0.6435596036321927 0:86.71485293541375 1:92.31613181328075 2:96.36140279867146 3:66.6773069164107 4:53.3048834525709 5:79.92857632893907 6:9.5339435760616 7:77.78098697909074 8:4.2250134126307435 9:36.13427625171051 
-0.6431654622604016 -0.6412384661666708 -0.6425882651441313 0:63.18153320781259 1:74.72009386271895 2:77.97355058095906 3:57.369400420036996 4:37.351940723441466 5:66.44020858859642 6:14.324829289137806 7:59.27898929814229 8:3.4871141080065367 9:28.157780075714 
