svm_type c_svc
kernel_type rbf
gamma 0.05
nr_class 46
total_sv 282
rho 0.005410837904106546 0.4091702831192336 -0.09090778353342226 -0.10389756592827798 -0.12014453323857675 -0.012634717409195601 -0.11970012149802924 -0.03454391153626613 -0.011898819700928244 0.1808743315519659 -0.15830534758933937 -0.06385062062110092 -0.01714510718665198 -0.14846941723012963 -0.10639287585903244 0.021598792821112264 -0.058908610924588226 0.01877011341488166 -0.07619874046078412 0.10049671417871255 -0.05827474425834473 0.18186307827219148 -0.10156981740509168 0.0584552897495609 -0.034563046151533786 -0.11132178473352643 -0.12602205934322266 0.09167064401073269 -0.191820821011152 -0.09179807184087413 -0.10174485434030191 -0.007933513439504929 0.09095626241783149 0.2668874571437016 -0.024726982055237434 -0.02377470329960165 -0.0514739521808234 -0.06098444584062341 -0.04753668648639569 -0.054365347842459465 -0.04772831835573731 -0.02444214945865383 -0.09332975842081946 -0.03381703038105049 -0.040355109078687924 0.2049402016681368 -0.14481793868923296 -0.16807100453340093 -0.17187476167385526 -0.07139514907583017 -0.41247319895981804 -0.18586256442641064 -0.09131413410164874 0.29253660685166194 -0.23494989604073452 -0.10870094154789155 -0.1502631675867374 -0.18978320122861098 -0.25181282754580003 0.05194706383029129 -0.03404390019285539 0.2251962393751915 -0.23448113656924627 0.056843950814936255 -0.2039263532826562 0.1426164059866687 -0.2998738340468087 0.11625251868745946 -0.11225089460488918 -0.3922397302561576 -0.18611772397384235 0.19519828683211007 -0.2385784309746113 -0.22563739590541837 -0.2747644853692463 -0.017467507788886467 0.18746779057630578 0.12130557532742636 -0.05256160279295833 -0.066800038948811 -0.14161233372228552 -0.24643386841930523 -0.07746738005903774 -0.172507354178337 -0.10587029284623645 -0.0367673247319571 -0.12047331813320335 -0.11863881845896267 -0.009257381335277922 -0.3691382893940166 -0.3346224478036913 -0.35756585342714536 -0.2014275372999734 -0.29901637651297264 -0.07975967411717506 -0.09302993398005023 0.0736888047168959 -0.5520827092728582 -0.38599685731859307 -0.3594450502640564 -0.3081028497856617 -0.30811733780226563 -0.035437453615493976 -0.18985097889881894 -0.08407848829466545 -0.2829923983695194 -0.12423988505522933 -0.2384853125400645 -0.15432864016900627 -0.26301842122956826 -0.10034413832877459 -0.17224597136025602 -0.27992918255257937 -0.17626957583046102 -0.06399342685012506 -0.40814099049165936 -0.27141165203813367 -0.2558735447278773 -0.10346847079266898 0.05783649691321695 0.23184311576989566 -0.3116016432039413 -0.256909154001857 -0.319403585765236 -0.25851327779363287 -0.2370941999861996 -0.26401596298966884 -0.3097033277101905 -0.23682187417097497 -0.24870418232893096 -0.2798310512865545 -0.31517984256060133 -0.11295183491811578 -0.12669930879379115 0.032700588016785985 -0.043894108747316925 0.09600850466162385 -0.028467084231819737 0.7895791311038781 -0.23256651400796566 -0.03233439356014914 0.06945559997715031 -0.11752440455524095 -0.10672481210190034 0.020467403448655056 0.016130097442880506 0.13413333570673727 0.009901978858828183 0.14626140116112205 -0.054866988030290186 0.336078993419517 -0.02323926993373618 0.11275591946325833 0.09725941690962665 -0.02789735570200652 0.005924607838461912 0.27014392925353425 -0.10313825413091753 -0.016269905539208082 -0.08136969646835529 0.04724728601536426 0.2389910871143833 0.16016075139682606 0.02639050494283408 0.05288837326705163 -0.12273135744893035 0.014200124997324504 -0.06719352128903631 -0.048112281121046124 0.3228395385680201 0.12998264675301374 -0.0763923352145264 -0.024739382725204408 -0.027161331969635105 0.10275245112206448 0.39383637399204996 -0.08018334292337191 0.20514872381795946 0.01574072789443362 0.5619514154826285 -0.07334654216633446 0.17270134187695452 0.007175170822895118 -0.05294464278742303 -0.1335167482615872 0.023869038119244266 0.06617737287126685 0.12083727278811485 0.0487934844685265 0.06627008404001472 -0.03787233527853888 0.33246139699830307 -0.0019558641458985136 0.07634204669210193 0.10238809340711419 0.009868052879080026 0.04801143914404947 0.44668490270895483 -0.05796994813005893 -0.030672069502416605 -0.07572356422129237 0.15502885707912972 0.41466192688248693 0.12686351878003416 0.07465955801677004 0.15815637672430818 0.2466912242370185 -0.010637553742464797 0.0771311126156758 0.01844937149975999 0.4464566699662172 0.31249944092907567 0.23580661543305922 0.22730663198296375 0.3870956861494263 0.24770225575030888 -0.007224936824467349 0.2577559542894275 0.057024099341622676 0.5939362284907213 -0.024883563665975363 0.2113521092206457 0.026724977085599243 -0.11781271417191073 -0.17455616666501644 0.021024237666566994 0.11636990631825106 0.1999201558151614 0.06374664807516521 0.07607717856408279 -0.04078376977853575 0.33330590879320343 0.02054760136701374 0.07273450224951557 0.10892827354714821 0.03988447993146626 0.004106998995632325 0.4090542745031988 -0.06389330020673362 -0.026038009594285132 -0.10937397484691168 0.06377328615017258 0.4708547484582626 0.17630821239360045 0.18062576449351211 0.2036695133477441 0.20030039657645707 0.10233527390094217 -0.01075948420120082 0.05751308432699985 0.3144500543218834 0.18674790884799375 0.14585778014780978 0.07472807035854002 0.26147196771257303 -0.08559111679161628 0.17617331453928298 3.0657749289834555E-4 0.38842247735542784 -0.11993303912285 0.08192402692358985 -0.04580510073725138 -0.16462059870077325 -0.3284412438721154 -0.1466674449154131 -0.08039973002596068 0.12181117017341708 -0.031938382355848546 0.03644662655096462 -0.1173659499721813 0.2511210626596178 -0.09687605228747928 -0.02350069253472789 0.01408908673355387 -0.06317817241812212 -0.02276325153092723 0.3248299782482083 -0.09320583650180006 -0.09884373427498613 -0.17587459457392504 0.05102961075128972 0.2841812461544846 0.10469011837581323 -0.090887661968741 -0.11109229165398116 -0.05526932607588568 -0.05754070757058349 -0.148733776029347 -0.00740295967110316 0.09807839940644116 -0.04652704658865383 -0.04190078883127735 -0.02900202375351395 0.043834328788830194 0.2779578993878511 -0.06819537160950942 0.26083521077388416 -0.07208138571868591 0.13080577993387746 0.10405287126333623 0.06854078790336303 0.07735870317141627 0.16312066645682155 0.11513800126352956 0.4065096840361708 0.0659125196076618 0.30662572471338934 0.08588600006349385 0.3164613275144061 0.04992907808510035 0.31682820052241084 0.1255631124052557 0.009997210595925605 -0.016648600869931276 0.2774612916220416 0.09460168686776108 0.0255019308543645 0.023643717461445866 0.14902201778293425 0.2370258912205484 0.2993912383245302 0.08890107170529742 0.11522486169892973 0.07187305201952134 -0.03794131796853138 0.09072137448302181 0.07293332860934909 0.1484712468889397 0.1938938328205476 0.1612946376105586 0.12805359644927333 0.20798638507442188 -0.10653959494143234 0.23821218343608486 -0.09563608639305823 -0.10215760267821306 -0.05028558418549753 -0.1435507573798995 -0.31381773101584026 0.0040082485521794955 -0.12040209993550839 0.1728637479246354 -0.0859323367601648 0.08305353105756903 -0.08088571008365196 0.2144346270420804 -0.20459909805176116 0.17090832738099457 -0.010125593231415531 -0.1123134223445622 -0.120291588712975 0.14620792599460947 -0.1252196268566616 -0.13603205118686348 -0.2909550310922722 -0.0011352584101871723 0.2010695190528666 0.10879552647086371 -0.12511144115906705 -0.15291248629392337 -0.15959854338049873 0.0712553677762968 -0.20851723314982532 -0.1366258042954704 -0.07792851606141811 -0.09855670584507448 -0.18617409896334638 -0.09038638147210167 -0.07569386248271262 0.1872846041213592 -0.1687560713189638 -0.02984227078415307 -0.01696951556640206 -0.07077990762685182 -0.0365088443448307 0.09006814495841435 0.02930033568563874 0.21197340930615227 -0.020339450289297085 0.012419234651645883 -0.03348326955676332 0.08418935694125483 -0.05615397327024385 0.04275058970913782 0.013873909187965812 -0.0648232874799277 -0.020930323209192487 0.11931358418016923 -0.07398174360551274 -0.060769974208852925 -0.04834470399826412 0.026190557380037942 0.1126450393802074 0.3322801831122695 9.459762306594856E-4 0.022129007296602537 -0.01775440827675762 -0.019127407433394125 0.031809778281488774 0.08567329237160085 0.04622151052817699 0.05452148573314517 0.034788804954856166 -0.005829509146444899 0.034597114468555 -0.6218461474364959 -0.42034445795424663 -0.20244482888370408 -0.49276093762528933 -0.39796018708402814 -0.25333764288228877 -0.37236987294284724 -0.1481371607402065 -0.2517711969304116 -0.027019271677658815 -0.34082903601929837 -0.10984826881531766 -0.28299280594780146 -0.1834477542677072 -0.22393380505003596 -0.27254814812224204 -0.2170734824373986 -0.13687290904992974 -0.37612888752354856 -0.28902832988151506 -0.2850829378326193 -0.31929615642871756 -0.23696008398533316 0.053953212658285045 -0.646318473572524 -0.3757990820324281 -0.44663110884101936 -0.2663120194664044 -0.3844611152332082 -0.30013165254158736 -0.3128519614466875 -0.285100975146649 -0.4129139878636616 -0.5839081950855974 -0.40767698999743884 0.17347297411923165 0.14019912248915417 0.0431588020837281 0.0037700223866827514 0.17425458796226245 0.07677824542732324 0.22830384906401927 0.09067696097296227 0.36035168204309737 0.06886307850091627 0.4619844237173705 0.056263901228721123 0.2213744582357079 0.14047491657241074 0.05291344730867198 0.04824969848609689 0.2640447346959839 0.028046528970338817 0.05622451311989418 0.045604735902147385 0.186906084970603 0.40529036446029576 0.4829627421639023 0.14131806621765838 0.12204532877829723 0.05558617500632081 0.15728739997457827 0.05797117620667176 0.11384784325234987 0.15879685353652784 0.1601126088448636 0.10539384760251602 0.12286839405917686 0.07287322141128783 -0.082280694809564 -0.13456750345662172 -0.21801355243091095 0.01424297061554949 -0.06088452320077023 0.23069273870875617 -0.09748432644072703 0.1258429110293838 -0.14122984568488556 0.26380863357629497 -0.17573854634078884 0.15875438346460588 0.054387774247124 -0.08278655993204095 -0.098858793657006 0.2679682972493512 -0.23754385356580227 -0.13461629416715112 -0.23618543586326518 0.013391829704588399 0.2571723688832195 0.20378913708650412 -0.05524546973209568 -0.05824275391030835 -0.16770547657395007 -0.02627688528336088 -0.12738349522048406 -0.04603666108736745 -0.018853555871930973 -0.06312933994155795 -0.07671561007719455 -0.06332807768453376 -0.003752009614508833 -0.06735863571171428 -0.04261554738728104 0.0633912762528005 0.0633284945054763 0.1722200061721268 0.051435052034765 0.09734304578419052 0.012187928261073839 0.2447864784912394 -0.04404968215823852 0.23514506415326983 0.13257957349054175 0.06415791294563991 -0.03811104673124194 0.190277586345588 -0.13937640720940853 -0.031861075984303135 -0.011447852290849965 0.05552719987244901 0.12985355067896392 0.224568846899044 -0.026589009965408188 0.02852320484164753 -0.08381400956180658 0.03902381334179203 -0.024905568402630356 -0.013057010643223482 0.010805062847992562 0.01747035732692435 0.05699197785653819 0.022227710034263017 0.03908220234231228 -0.11220155948013491 0.13478259080722252 0.07015189695696755 0.09187259763398303 0.086188407191524 0.07568120987661896 0.03100473207922584 0.4131521602962787 0.01635776622844493 0.1288493822420369 0.10482160633385511 0.026513629809922445 0.017010956833288432 0.3243432474474193 -0.04447334914665061 0.0036941100411777687 -0.0671293098254377 0.1130537393680992 0.44754028689165837 0.1980305452015775 0.12284834237212845 0.127769668253913 0.1345669454861234 0.06195221506867227 0.04231843674974207 0.05944272571389776 0.2046456509711647 0.14771470792858526 0.07748033152527557 0.13283585181024735 0.1787993872921659 0.1225481151368368 0.2729497479955564 0.12689564405055243 0.2010104075652167 0.0730680420348557 0.11171970128508393 0.2798996626989198 0.0829166024166277 0.1714296834866941 0.13206962942311193 0.08739924292360408 0.09757463725765776 0.5114617332630963 -0.03360687553893633 0.051117944459600814 0.004309471016412129 0.19070678321378282 0.4024828986895548 0.13424444129818713 0.15505888226133313 0.19037783318094195 0.23634972016520844 0.15386157226477412 0.1560014792178521 0.02344824949133543 0.25347769934413844 0.26679408258842896 0.27038594477179323 0.18113215171601077 0.40130926147268786 -0.09989427392371396 0.017404769033052457 0.0052713683247935265 -0.023721441859526318 -0.09072925448176197 0.062281896462793626 -0.056759577483767185 -0.12756994028898816 -0.1488971980790541 -0.0954239607627078 -0.08621388746251102 0.23154891457029173 -0.1268592839639921 -0.06013364704099495 -0.1439858729553069 -0.11947755214999659 0.09207054338158836 0.09389622801562943 -0.0991199924144017 -0.06836779109465273 -0.028664009603678643 -0.047539662195299856 -0.20465355865444568 -0.10968095658358347 0.059548470363657915 -0.079372969931033 -0.009020389309022273 -0.02516000935262236 0.10992515091610046 0.06792499638575293 0.026583471511768198 0.020475435046985097 -0.09029208366191468 0.15326739981972806 -0.08053426771551116 -0.07215838456115833 -0.020505747559617597 -0.08459888015395149 -0.0722062437037893 0.4613840318878888 -0.13478970334306686 -0.09912940900395607 -0.23956473589967306 -0.10584250593577656 0.19444324107617342 0.10924323832094505 0.014630653309621844 0.054662733606730844 0.029733354596969356 -0.047668507051963606 -0.0767416689979752 -0.03859931755536838 0.15390009010796352 0.004128608969646824 0.08419693343170997 0.034576334514919344 0.1774945504442762 -0.13549293375311228 0.04771675972759565 -0.07930619206919348 0.1532593170179239 -0.10407071244819084 0.12093883639134978 -0.16010126413916576 -0.1885409318988517 -0.05073797882558706 0.0792826166495522 -0.1560967936484818 -0.18918818585461492 -0.14337527880286602 -0.02516094599643548 0.061461142752521146 0.06607970033029123 -0.025286776940947848 -0.008551878812763924 -0.07686089452740673 -0.07435956388843046 -0.053189718146660535 -0.19561509144240072 -0.05302203208122415 0.004782319739984082 -0.03653578839192528 -0.07473553929776819 0.0038781989274442583 0.0918098080463608 -0.1280274389633795 0.24431123423600729 -0.10550919671578221 0.19051062955504006 0.06041974084952197 -0.11088736437038299 -0.02789047513609512 0.21515862917934805 -0.06979879652961635 -0.07840292533274532 -0.16437234476408655 0.058226209658986616 0.18393231757838888 0.14211241807349453 0.012390614252580017 0.009536097685351803 -0.014555609276210385 0.18294133399964935 -0.041340454433872686 -0.020612366749502058 0.07043084288496829 0.021032490852336792 -0.011369400388890302 -0.027687487778665042 0.04419563291021976 -0.061073686481012 -0.007803707836357784 -0.11389676657736755 -0.03661958164541307 -0.12311310047878421 -0.11911356330208044 -0.15495261364253302 0.03585987160744864 -0.10828859059453014 -0.07929251226615738 -0.10144574385926028 -0.004864887346047861 0.001959628745749031 0.2612479495484244 5.192904307912718E-4 -0.01625096673752751 -0.07060606070725774 -0.16679242673749867 -0.032974187007820004 -0.1360957514271406 -0.08591389611082112 -0.020635110181848507 -0.03612471981980068 -0.019855172757553514 -0.04108395186855122 0.2788215938323944 0.004550283168484633 0.1818813127933511 0.16066275288455284 0.047193168360142104 0.049750660360652704 0.3368810867938619 -0.044340699941182345 0.026203224106499095 -0.0720444564879443 0.22773128954560445 0.30986704337667276 0.1295684352262576 0.06522708458652593 0.09337887543320325 0.11934548499632806 0.173769144697449 0.03539874247223953 0.023502871204477655 0.11464318927716209 0.16233396191776744 0.046276035455176674 0.11629008960838245 0.23587313697922793 -0.2998142657495906 -0.0755511691736006 -0.2041032942778544 -0.28876104106935585 -0.2563429784018228 0.04467666435984916 -0.6290820480460463 -0.36013805479124394 -0.3007738286589079 -0.09557807167925442 -0.04977313011617945 0.12546989257522456 -0.2525679460265494 -0.16642352582504763 -0.33010628061627584 -0.2744559857052723 -0.21263295478981703 -0.14288716587301978 -0.23576474669877526 -0.18099000306282806 -0.2822781556583165 -0.2974423841772354 -0.17872817887870396 0.30890074188201055 0.25513890775927744 0.030912735114705103 0.07716668297370019 0.40910568017959925 -0.024056372905848278 0.011400855757954572 -0.11298441686583523 0.13659895113525977 0.2217877948845273 0.15294107805551058 0.050181958303476396 0.08930544070522987 0.0553565073523435 0.3445077131186691 0.015070435754554289 0.02374472202939816 0.06256156621719075 0.17475106834130816 0.1098532802257144 0.08106718461953391 0.17978142146268702 -0.23222223423906907 -0.4561553867452132 -0.18999316038249522 0.2771324137360902 -0.26726226057307245 -0.21967287587015774 -0.25390842536689434 0.08023763253937052 0.13540571662910883 0.09728055929378134 0.06688191903239368 0.06885313237386119 -0.010579037592603773 -0.12952078662050895 4.8032325669392035E-4 -0.1719673248545562 -0.07459471320435089 0.07718638772671271 -0.004588322076599399 -0.0703955112767983 0.04356610092516226 -0.135812786550871 -0.1824934020947058 0.2764127560044752 -0.14876194473890897 -0.13576082214149843 -0.268999946846696 0.0754421074963873 0.1493459020141087 0.13214861097074537 -0.03424603388905293 0.00555105479006618 -0.08225858983659483 0.320617179616638 -0.050758505392895004 -0.08859580459996728 -0.09963168284679152 -0.011154732126847563 -0.040281173321672394 -0.04466936963324983 0.044806601647604694 0.019955367077978244 0.26651325225523315 -0.09990492715314908 -0.07561956799519066 -0.12522154672678326 0.11469596468963814 0.2371896618306863 0.15433814321270625 0.04162733291995072 0.05885455042990566 -0.009619190291793242 0.33863694333452904 0.004533672394794469 -0.04207933479254237 0.03694463202483106 0.0999649019295022 0.07336383773232771 0.0386388747436714 0.14350402948182234 0.30941362026690256 0.0014891076912171204 -0.015960761940754208 -0.18623502914251863 0.07341968304058019 0.18957305678938222 0.1483678471422628 0.05292141371459902 0.06485535723598339 0.009105508274893936 0.21554175621696087 -0.0016691445675542282 -0.035915870350955545 0.0327275582353819 0.10649232328129987 0.043712896162266965 0.031720515155850906 0.09865709350316634 -0.33998115245170096 -0.26584003618035607 -0.4877449695052403 -0.23274723749391601 -0.07791571329770311 0.04863294310434741 -0.24839394992710448 -0.2857696440190097 -0.32190463720046947 -0.22173049479116577 -0.4477244053962754 -0.16986580246536678 -0.16524257866703168 -0.5178736736015931 -0.45933957678137904 -0.2569488950551629 -0.27015633662343125 0.11595775767356901 0.04152277508471874 0.2040252457311957 0.35118849407224134 0.21198278825006436 0.06644547636623094 0.08276821698598126 -0.002077744242780825 0.14400398632725103 0.038007121460779184 0.03766500254849218 0.12648161029534408 0.09036723595998805 0.030452489020540978 0.15051646511457747 0.15412433385429553 -0.08736337963918767 0.20704081222169401 0.29928748086134577 0.14809362400345621 0.05952800278088693 0.060807056360979016 0.026350840031933408 0.2012601665709479 -0.022284859149874985 0.02689778279123675 0.09722533772644552 0.08279502946243106 0.06357105063518975 0.04891203421976274 0.12496046445001346 0.2773381352643353 0.29764989009934995 0.12897305494774775 0.11946711625330778 0.14938078269728522 0.15407498497290528 0.3021553147496126 0.11415792713451282 1.826767956590048E-4 0.15558692599799534 0.2290932726491988 0.2748265328609081 0.11282608454899638 0.3115346819885883 0.17980867231894723 0.08251938816342244 -0.049811924994682316 -0.03308870279843813 -0.03596211154793249 -0.10707400165277638 -0.09584437612834296 -0.0649056643976281 0.12964714298887758 0.01821196718505885 -0.11173939337137359 -0.0685791042128806 0.08512921668181983 0.03769846842207543 -0.3051568761427278 -0.21006399131155182 -0.38625960998207587 -0.19592219757770418 -0.2810387305417622 -0.19742847113218973 -0.13385304490575523 -0.21368592370175896 -0.48320427592680754 -0.5325933711410731 -0.24273336425126044 -0.10839356080117364 -0.09214901319293609 -0.12917047683125304 -0.2595815037176668 -0.09874606207965496 -0.32776311510568296 -0.09242313265430044 -0.08587722480389832 -0.10227640095389565 -0.13212878669703473 -0.08421629227522744 0.13727226420799285 0.008944164432182562 3.2695808960361215E-4 -0.12611845917089645 0.012450617665026554 0.08984564275428868 0.01801611054798081 0.06225797560684321 0.04999110487848358 0.11688125084920277 -0.10370189773940923 -0.030253167741935743 -0.29059260279495464 0.00543381246527139 0.07043243914798683 0.01725044316412191 0.103618575451027 -0.01414701005389933 0.1482807023625466 0.06001764446986604 -0.1683447260960162 0.017485486979559376 0.1266557729431225 0.13694284302606027 0.038740868690819434 0.07241815982716868 0.12799405875273498 -0.05423255665866451 -0.0819839532461904 -0.10171828751327402 0.08315612876934442 0.09021966273929914 -0.009163234236860714 0.02944739558568965 0.009780371988420982 0.2017624509300764 0.2483102015525038 0.35312613915885266 0.12082334113828674 0.3114165309515481 0.0088898433330992 0.028169506950395932 0.08173638339545526 -0.004936430430312022 0.0803405448693363 -0.11955385324489808 -0.11600629239289706 -0.1651268264218778 -0.06153752335994299 0.06634974829363822 -0.014052204703227707 0.23303557427498936 0.1254562199366668 0.20260163414726184 0.07637059177867249
label 0 1 2 3 4 5 6 7 8 9 10 11 12 13 14 15 16 17 18 19 20 21 22 23 24 25 26 27 28 29 30 31 32 33 34 35 36 37 38 39 40 41 42 43 44 45
probA -2.707800460060321 -3.513726285734787 -2.648715091506303 -2.3678791228195952 -2.501186002861124 -2.547129777270666 -2.72617487491745 -2.5164943267104944 -2.3741034385684534 -2.7885813060654896 -2.5849208308655687 -2.5427274073671344 -2.7817662473586977 -2.3994500242552346 -2.222288669475412 -2.292596320932825 -2.2571635841024844 -2.683007739209825 -2.999233828322662 -2.691563510896711 -2.2546440821049782 -2.924355435718392 -2.253600810467726 -2.478588370662829 -2.3093923256775475 -2.324302369796262 -2.214926607538702 -2.460420310178223 -2.417944652178804 -2.3665426488548764 -2.183913717594004 -2.3702358787335474 -2.6086517171476493 -2.809583792717975 -2.558680153112811 -2.42254327563856 -2.364762675044363 -2.5651641075403666 -2.392711960137547 -2.386788354791412 -2.820145973734312 -2.403505342012197 -2.270472122750952 -2.5663570835175253 -2.4535041170649414 -3.2236792977549995 -3.0096303906086934 -2.563663151153434 -2.722046046138156 -2.796080535737458 -2.7219818669105535 -2.685941791203737 -2.273046505021441 -3.029005380261341 -2.662297419929814 -4.283709196809329 -2.5680442402377777 -3.34402039478521 -2.533555875451066 -2.5800742372244194 -2.6124482842505756 -3.0038354616960206 -2.6240280602589476 -2.5408572079151335 -2.8268008169306174 -2.9834989016750746 -4.497538701529837 -5.068590166083756 -3.265641549146773 -2.85162885978782 -2.583073332642939 -2.970308981888036 -2.5963004131219525 -2.6480111392493924 -2.5141940119243165 -2.4886934133090337 -2.9637261065214586 -2.4047190440389445 -2.8085563400370024 -2.5684530342450076 -2.622211466768698 -3.851821472664566 -2.5385077219817096 -2.7666104533398035 -3.0002096566693863 -2.8490960419280498 -3.238269260183537 -2.7572566983412097 -2.9505394751233505 -2.937143155029255 -2.708230592129838 -2.7944892514270916 -2.708272798439768 -2.7105395459406916 -2.885813526859496 -2.5581514276063695 -2.2854351871906378 -2.9839867702066014 -2.942389039069444 -2.834001257141128 -2.5650276845121454 -2.448051699557466 -2.5516098518076307 -2.4941750303650907 -2.6712420667930488 -2.700901631071291 -2.460503060149902 -2.5706364132819686 -3.610235138103721 -2.9659232343799182 -3.0924527706129 -2.6631935332369605 -2.9465244993226425 -2.7558495986959723 -2.998692194178408 -2.7964422966949045 -2.4635529914916034 -2.404658384300561 -2.486896304832571 -3.3322192194814773 -2.6854452732938006 -2.926062405816755 -2.632194247407136 -2.7729509321316166 -2.7439530087490724 -2.4988295192066463 -2.614119821643819 -3.035823850921953 -2.8416895758704905 -2.9477745355179032 -2.86084318886912 -2.6642005465325327 -3.4446398000118728 -3.113928716895392 -3.078043762682167 -2.3308736103641703 -2.688765473014882 -2.2567363483695977 -3.7208533985595578 -2.5790338220536344 -2.629190703824336 -2.3687274968456067 -2.6492463011277207 -2.4053323203298413 -2.546933949635598 -2.876904775645351 -2.609260271553559 -2.4286580627570333 -2.373928605180604 -2.4157193319680217 -2.747523387053253 -2.6494976326379973 -2.941916721263057 -2.5908328962719476 -2.4778302405518233 -2.2807762600594748 -2.8731044784607307 -2.3606099660875146 -2.585755948438188 -2.3438889554907094 -2.578171687990893 -3.2784763113680437 -2.4505242026091616 -3.3354166526664115 -3.0051284645112153 -2.9542443179642204 -2.7813055489539313 -2.493821765652287 -2.376575900985709 -3.17136965232955 -2.8530752458999866 -3.205714078544937 -3.2791910568425493 -3.0145640667638327 -3.7394478025170064 -2.5296706412957546 -2.132833394951213 -2.7851662543927733 -2.165035704788657 -2.829820807720848 -2.3191854240829106 -2.583342395808893 -2.204368628286572 -3.1105182309903774 -2.988847521490402 -2.6126177480249737 -2.8980273416657303 -2.3785225796887697 -2.5382472375565484 -2.222866268172433 -2.5680934067904877 -2.4561445847510326 -2.4832879975853297 -2.7873914114756393 -2.5409421885149253 -2.4384952856283273 -2.177353003828208 -2.7374983207614485 -2.2955350978630182 -2.3947828217386617 -2.282506145768481 -2.7206373764400444 -3.086738324405529 -2.2593126203648786 -2.9675239071875312 -3.144843912060923 -3.126265345194718 -2.4156453733460834 -2.7293534596740705 -2.2500117286933006 -3.1272644795972124 -2.9535695646384097 -3.063012312251226 -3.45371540492788 -4.020974052554412 -4.31661377616846 -2.2643800247127137 -2.5391089838955794 -2.1219600452944745 -2.8501227548848433 -2.3619830485827884 -2.6096490295575783 -2.198636971884142 -3.322457191655512 -3.046351213147875 -3.125802472720249 -3.1275203854249134 -2.457456468984323 -2.5392408401114146 -2.28889121018428 -2.658475312088099 -2.6220136448579408 -2.536055905680705 -2.496517779121144 -2.4675987595089905 -2.479461768372768 -2.2449576160062636 -2.8767436724022377 -2.576437193661714 -2.5741409252963625 -2.38594975224254 -2.963364180979559 -3.0895983034001104 -2.2991422751627417 -3.0816824073530413 -3.3740650022509 -3.5926146437222033 -2.576924817701138 -2.934599360867636 -2.337480818180449 -3.02154272324618 -3.274855679961025 -3.513447970707275 -3.3181860937658167 -3.999920764831325 -2.3063906973634607 -2.7323492373002143 -2.1924340606974697 -2.7433702783192273 -2.3439842180273334 -2.5890133060495186 -2.3953118340493855 -2.856874534470169 -2.826931627502139 -2.7214088378977332 -3.096167499122832 -2.463199917238602 -2.5894049975133915 -2.3545604551881563 -2.6465222925483616 -2.6959990142280295 -2.94002321450008 -2.511214467134887 -2.358680952396617 -2.602469611513188 -2.3218179006874426 -2.8152499675171994 -2.4175594238356206 -2.6552794009590794 -2.6137987453884217 -2.918432037224127 -2.9722841763225865 -2.3532898860869484 -2.7575842711094913 -3.20290243903871 -3.394903171846384 -2.562524339877738 -3.0061901069810477 -2.3712658718319766 -2.9333449318622313 -3.0166153911436244 -3.439737769094535 -3.2305664118950843 -3.515943745991771 -2.577290221166195 -2.1905991886416643 -2.433746359795749 -2.3658253731436685 -2.5972039018133297 -2.3082585346102387 -2.1361082644928544 -1.968917865814071 -2.127949351471201 -2.1344771531638793 -2.3683634827411595 -2.3902077404897777 -2.792857695289406 -2.1638020645546945 -2.686027381181081 -1.9614947345077782 -2.4736044501861465 -2.378686763362527 -2.179731317832 -2.0957669643288606 -2.2641072473159616 -2.1802402953879274 -2.0561350828373297 -1.9622977980001393 -2.1235912009240527 -2.392930241555904 -2.405702611926051 -2.3002620918230634 -2.2700926569514572 -2.1423544730818227 -2.5589775864116597 -2.1972737749400175 -2.2900859534962357 -2.4082010282099637 -2.339168864740102 -2.1025584393313004 -2.2293046827496243 -2.252463815581139 -2.0970262095121472 -2.604894656523226 -2.4649885169882237 -3.244205888772403 -2.5079612314311386 -2.625588752414576 -2.909245552865917 -2.4926179737077323 -2.7599335313497098 -2.9148957720196615 -3.412454637690363 -2.3770431997154433 -2.824016649173833 -2.7565266359811145 -2.9999512495587974 -2.203579985825849 -3.4124933844857055 -3.1158086513948713 -2.4330426979697863 -3.0235218353199085 -2.7311033609012254 -2.4598110017631507 -2.4982451446116505 -2.5997053052668617 -3.320895299146958 -2.3232518382278733 -2.621405860634193 -2.6017672459198478 -2.619275984671103 -3.4740294132559524 -2.5598906227798306 -2.553403131994885 -3.0179547273846477 -2.8368267876189313 -3.860034880190644 -2.6585112057704445 -3.1785448462843573 -2.2193486265438596 -2.1619339349106137 -2.129495300695794 -2.1252843285826297 -2.047259439211167 -1.8797353389491729 -2.0868679363703495 -2.0585507656333153 -2.165578979835801 -2.0154879041853504 -2.5547197687455765 -2.0516476429422266 -2.270562802516542 -1.8402405203866978 -2.1789782833497906 -1.9701952894174266 -1.925322615321537 -1.8894793772842764 -2.186497258483798 -1.995505832732514 -1.9864224531548051 -1.927414516288612 -2.0580683042441987 -2.204244079350801 -2.6192075269548885 -2.2793107108528647 -2.1324438385518616 -2.103179678615424 -1.9882272066686206 -2.160269739632371 -2.310728988599814 -2.382156365316469 -2.140233968243867 -1.9859584354899869 -2.0762320950805653 -2.322616207952147 -2.710399130108781 -2.8007509874297325 -2.588793623969183 -2.8975655910528224 -2.6242371053203533 -2.678923742248795 -2.712412208315865 -2.6659171748189334 -2.413964308883244 -2.3681334331884023 -2.519608943006672 -3.224327332404871 -2.4055735370331846 -2.9486719299755872 -2.642129671860363 -2.3953235157470085 -2.1871042373589336 -2.8815294545092436 -2.521507820588688 -2.3233439212534868 -2.2046686170135317 -2.458590134578275 -3.3799369235531658 -2.3922161391935615 -3.4390701005207016 -3.0728088692179396 -2.983063703179629 -2.954072021485563 -2.6140144388930273 -2.443361822553797 -2.3634072787634377 -2.9750149913426602 -3.619761403482864 -3.379258101256947 -2.9356433915595948 -2.8659638491806514 -2.4899128611695387 -2.445502111147746 -2.058315443355929 -2.183361746601345 -2.342888248493273 -2.357185164014025 -2.4717628994315306 -2.3839892689969955 -2.234871988168143 -2.825044931825017 -2.595274174295264 -2.437224912644201 -2.552723118886691 -2.309512050441817 -2.154886773495575 -2.3473349673939228 -2.6969201103166895 -2.4674064715775073 -2.0701905254207165 -2.3561216372692355 -2.6151294038093553 -2.3332287623015544 -2.4646060719992007 -2.328011373538026 -2.378564466994815 -2.3966988946557604 -2.2493849592034283 -2.444232684033373 -2.517181832255936 -2.4131924977371546 -2.3785453203377536 -2.53328594032301 -2.355422780766645 -2.4415817201889993 -2.490701137140314 -2.334374872087876 -2.5473119246009754 -2.5314652923248904 -3.6414875666078275 -2.8329598845797057 -2.518551512440309 -2.9314008863969225 -3.3614468447372516 -3.110774499440887 -3.757197692080662 -3.3298317092315513 -2.9375425835067164 -2.3471943953851464 -2.786306419847915 -3.5376153662192067 -2.8174202687004604 -2.480814128824309 -2.5710024795468893 -2.9516673463658525 -2.264119031231617 -2.7856738893327893 -2.4822858737838986 -2.5060685249866994 -2.861765807320726 -2.5008876953654724 -2.546074356573127 -2.832366347293802 -2.752945603892492 -2.8233525530676653 -2.9490106918475645 -2.7888082488481367 -2.5457446006483666 -1.9651357755089927 -2.1339177948623296 -2.0671977392376766 -2.5577082370218136 -2.224191340749597 -2.5247185653726385 -2.1505064697415714 -3.43399041699867 -1.9743569900246816 -2.8997446152057247 -2.356671718654059 -2.703652092886032 -1.9866941177149575 -2.2704985658082526 -3.057496348085421 -2.3975765713142225 -2.0627483871092935 -2.189255843390159 -2.4881574026055517 -2.242750246917661 -2.270263624674668 -2.204445271165578 -2.215362762884244 -2.5129861427953117 -2.282347282044682 -2.2449093026111804 -2.527117609796487 -2.2220374257803797 -2.3654930273848995 -2.2117426041041788 -2.3591562948398774 -2.885962925947448 -2.8793279675435874 -2.6979700741850707 -2.308794390239231 -2.4137990350652596 -2.100410842145851 -3.368875748828831 -3.1068989808959615 -2.7478708413450654 -2.608977533510246 -2.701836175255404 -2.6497206764257815 -2.5920735631168026 -2.8954355570190535 -2.4203431517670677 -2.4131406797251262 -2.2106415453790214 -3.092515627463917 -3.1941280778359915 -2.1203342547513437 -2.755550519650534 -2.6092173873219457 -2.649615753603575 -2.3325648899557203 -2.884916015119186 -2.21439882714721 -3.2714703721205525 -2.643001559949587 -3.010785461354052 -3.185404153817335 -2.919324811398508 -2.825414953579952 -2.636568275016532 -2.2116707132349944 -2.8370029520004065 -2.01220142358738 -2.7865044577317533 -2.4017606791320394 -2.858634069808539 -2.3316316931279273 -2.770665555700291 -2.4313583738453532 -2.4067077084842596 -3.360205509698368 -2.0731834893632093 -2.337861218455058 -2.7786045262282437 -2.7182296402302195 -2.7053942624639746 -2.1895274709178465 -2.4145174169676085 -2.881504210238777 -2.723201707179629 -2.3451399125896066 -2.737235727936613 -2.0602735502927714 -2.5073026324680097 -2.802939369509936 -4.00638136269863 -2.4737131347348846 -3.3648078374719277 -3.5141112200908284 -2.242796615045678 -2.2101226754589183 -2.1499757435587203 -2.313698422319474 -2.3971054398494465 -2.3519944517485585 -2.244052423255338 -2.3685763977428533 -2.2260182116707155 -2.2878361705171764 -3.2628168442516747 -2.1340313502008863 -2.38053099979825 -2.1918853354362677 -2.9416492415143862 -2.884965005959515 -2.241028668194059 -3.078508280721283 -3.0357455222297025 -2.69215839331082 -2.451232928784476 -2.9576598962095253 -2.2925204565142336 -2.6240598621039206 -2.622418329711403 -3.21135974092126 -2.5984519900811685 -3.006424912187834 -2.351440455698136 -2.4074004822525263 -2.176637778744704 -2.4590350457736796 -2.493404538934379 -2.7001129497368024 -2.336703753585254 -2.4117531283674487 -2.3043034812758187 -2.269338685258303 -3.4816824978331806 -2.1912418525060797 -2.5989563984769797 -2.4756207590251815 -3.5931417674622756 -2.81920758851623 -2.2401293101553366 -2.8641908093553177 -2.8703470775789146 -2.99595997483328 -2.3209100520942596 -3.0962119152493113 -2.317113676482944 -2.7939997397634593 -3.1113463747850414 -2.533738416943076 -2.605938331261422 -3.74731845837367 -2.7863767305231297 -2.264734472253976 -2.8364309923629687 -3.7852688650643294 -2.780905536053739 -2.6432184821779314 -2.818810968264535 -4.081110395328667 -2.515070299834955 -2.791664635920498 -2.5900762874928653 -2.2403803420975463 -2.4849312154875944 -2.320508412520917 -2.7719321635376044 -2.340303745292055 -2.385369770194819 -2.4378296763855323 -2.252044296703893 -1.0388352427255578 -2.4511050051141265 -2.5169105576144792 -2.790367894523826 -2.5749270116482705 -2.852456648764489 -2.547480164539486 -2.5825671902414933 -2.194538958062329 -4.305930416633732 -2.869252732895686 -3.981966121164412 -5.340228097972685 -3.247605952301395 -2.680713016062643 -2.4608266483242915 -2.716098546370533 -2.388725659156501 -2.785750581594748 -2.5906868095373827 -2.568546464326531 -2.942070327078222 -2.2068165683144545 -2.350019314115294 -2.401756146275628 -2.426950637264675 -2.7427056182299574 -2.430594329657009 -2.7699736527140226 -2.741813993675752 -2.6178045106101133 -2.696350372451465 -2.457576087712716 -3.2221222733976305 -2.1756445148157653 -2.695836002577952 -2.074340397700258 -2.4716826799402796 -2.158836316223942 -2.218556016883082 -2.0921229555032994 -2.288366945605669 -2.3165672960062036 -2.1531864391564257 -2.063133828003489 -2.20109816441857 -2.4934058199433604 -2.52064597140718 -2.289376409202636 -2.3133127197245336 -2.224104795130351 -2.286716745274359 -2.2533093653379574 -2.292276343806123 -2.40437710818226 -2.325197163062482 -2.1157899193191203 -2.245983747503455 -2.2729874289598455 -2.8418229189294055 -5.691157788487605 -3.070848588603513 -2.8282478972185143 -3.016210075510967 -2.723883704894277 -2.701464403219058 -2.7260681140891663 -3.0016211128790706 -3.046250375942589 -2.849508512658387 -3.022882755112951 -2.132392507471748 -2.4953503170881137 -2.5241805551066983 -3.0153801214456015 -2.577238105320259 -2.412199452661516 -2.22458276804958 -2.5241281165507647 -2.799635064123444 -3.0747056645079254 -2.8201672893908643 -3.0795710708641746 -3.5069572367080823 -3.3962028762236907 -2.7187570582585026 -2.8135691704609354 -2.4178959780941325 -2.879173073328023 -3.069915973342599 -2.789717610039638 -2.51572528729022 -2.529806820031446 -3.001300347147362 -2.362843655758858 -2.725126410914786 -2.5722795900126854 -2.536975160818558 -2.9422100286007598 -2.4412107495134916 -2.502204511420587 -2.994132358552636 -2.57935216719723 -2.8935731152600828 -2.967624227670412 -2.6874754593942836 -9.221310239991029 -4.10027971314732 -2.188432230528749 -3.2883140116784064 -3.313890431242491 -2.3966996145049437 -3.7410795092328746 -4.982608355195207 -2.5148371607601563 -2.70468471435868 -2.0550453005801375 -2.4048226000854096 -2.82422283033312 -2.7254572143345284 -2.648018357032491 -2.6077999713025166 -2.4742544744157993 -2.8279719778830685 -3.0888918387657442 -3.326242138583542 -2.5705943482198084 -3.6507626943513176 1.3228209812841654 -0.09580928164660069 -2.5934483800324855 -3.2868556711310917 -2.997782941527519 -2.587298737840305 -2.805154868795307 -2.429167993015522 -3.0525037143619214 -2.233550609159741 -2.4797082868817504 -2.5680900045201804 -2.336799437833622 -3.430912249840758 -2.396398331500263 -3.1134860635392725 -3.113876278059314 -2.713054298256582 -3.104266097385609 -2.9259146475025593 -2.936462081811136 -3.7982313344665934 -5.051436013090179 -3.945706641070638 -2.771432552289885 -4.485786156308837 -3.5284662239573827 -2.419872441787029 -2.6353109248338793 -2.138808367339482 -2.575079273442335 -2.885213326298678 -2.6256254208320327 -3.618161428898863 -2.4575823561414776 -2.3127797955639284 -2.65684457774516 -2.6966228140437467 -2.88036023777691 -2.7637576507547497 -3.1354550731714115 -2.6339048126106106 -2.5953685634082775 -2.7186791024516626 -3.1072013763540864 -3.2550357813774284 -2.939685099947589 -2.8318582431911734 -2.1566478217267524 -2.3690019087684964 -2.262640739272804 -2.307248138181399 -3.7187511207353245 -2.3650914912905554 -2.350855245248383 -2.5959729775831795 -2.542099190420235 -3.2260721884242147 -2.619117765265208 -2.7052651353359387 -2.898991902402551 -2.244698736849878 -2.32468273163276 -2.7641907754226263 -2.2298600674191857 -2.405225525926681 -2.106573643600085 -2.685905255075318 -2.1939135858076444 -2.6932743565865254 -2.5932813521974083 -2.3786107668205654 -2.1578015124315404 -2.380193799485393 -2.4365266661722935 -2.3426411466484067 -2.1919326763514193 -2.750330879821575 -2.4861669788792726 -2.8446018298978726 -2.6364069566235155 -3.0140590687180246 -3.273806616836315 -2.353916916795623 -3.168957787796244 -3.04978847831727 -3.3555363003057783 -2.7716350472670235 -3.3250547377631268 -2.388323071795142 -3.7608182931962792 -4.147203523487263 -4.452139059309079 -2.6865141971358515 -3.5149297380217552 -3.375292584795797 -2.186853033458962 -2.4634082423500647 -3.0676712409568534 -2.029974891719737 -2.318082746468472 -2.2381520385730065 -2.3036477314016954 -2.415644017465394 -2.199056582548362 -2.2540210315838194 -2.7048596330810044 -2.5903485736696608 -2.1613848834198284 -2.6307441919360306 -2.4881148914462337 -3.063979564070979 -2.625385588625196 -2.7047395951970676 -2.1295505124051175 -2.4113596901254044 -2.3692389711635355 -2.293936561226418 -2.4113637314557286 -2.2933017045334965 -2.271881986182533 -2.4909672974502133 -2.423607206129308 -2.412426496329917 -2.4401863416620646 -2.614926398092169 -2.8410238557669567 -2.58917580566661 -2.0794537526629515 -2.2732484630334375 -2.2606984316856606 -2.4331960394597436 -2.475844482970173 -2.3865086272031126 -2.1632848863309433 -2.5091653764073416 -2.7628634199611275 -3.154488031452141 -2.2643221698703555 -3.429689226474545 -3.234648147957528 -2.228451330551354 -2.6765533669667136 -2.865671035072655 -2.9777210631976208 -2.5384690745675513 -2.8422270568960992 -2.3198935474959077 -2.6202487494885083 -2.964169860281616 -3.4736380095160806 -2.848980671069594 -3.4646982341227845 -2.4690609057788535 -3.0061524018008243 -3.0418471973453887 -3.18674150877438 -3.061775003475413 -2.984505311866967 -2.4823547020884975 -3.235978220535493 -3.467836030092881 -3.757637097905196 -3.921425217137504 -3.696158243157214 -2.3506307416336543 -2.3108352795039115 -2.2741878301061433 -2.273425082463554 -2.4044010166412115 -2.4810091671118166 -2.3965927873000665 -2.323251256614693 -2.144519260520132 -2.2758011864550207 -2.338533784350641 -2.8459838408311526 -3.8504690580214116 -2.541653132198511 -3.107809895431134 -2.3483732376451187 -3.4156934725962724 -3.466171575144862 -3.474552996401944 -3.0727191019851956 -3.3386005827172887 -4.359142588641946 -2.5326051679477466 -3.1655359358724766 -2.39682693323695 -3.1627910575916705 -3.6564823191349354 -3.740161623391541 -3.0207466141199477 -3.50878469966704 -2.4778816406679565 -3.7355830363639644 -2.295793964193524 -3.2596464962382643 -3.755487340765026 -5.065320124117327 -3.590630136215789 -3.893172621714243 -2.422514699269017 -2.410617335437646 -2.6694044014831446 -2.566283610156972 -2.63288472666021 -2.4717015004112435 -2.8401928242833288 -2.3527332160709684 -2.807017261418896 -3.6886778017936797 -2.2716821321924905 -2.67096357121732 -4.182498968433831 -2.3639672155050335 -2.4243476935760113 -2.287457118203239 -2.2813098447511746 -2.3970855603471457 -4.065420770648832 -3.9253210977804938 -3.4553823492078855 -3.3586540913240244 -5.793453505857871 -3.1663458207858075 -4.378602254832184 -3.674886787176095 -1.2507539309756293 -3.3677691019650706
probB 0.08454178671912964 0.07018842463446227 0.039325793619068905 -0.10740650698876594 -0.06341612588263859 -0.03222519453831611 0.008970357917335086 -0.06941271151515005 -0.13409436471223032 0.118450155647786 -0.11652848357165117 -0.028434035539736648 0.0883750685830663 -0.14703246995859556 -0.257300863715078 -0.12675352462119727 -0.1070914955467618 0.10316862173309785 0.3635507969563166 0.028571174024868633 -0.1919195981744868 0.043058540765060306 -0.2115107596136184 -0.030504049331127627 -0.12720002170413405 -0.1348354669249213 -0.24923138331133018 -0.04917463779726106 -0.134331866014886 -0.17729535090301132 -0.26576786676620456 -0.06990772225565951 0.02547616690099763 0.23695353530464358 -0.004155460465043368 -0.034170449263191106 -0.11836706016834891 -0.14819364522656728 -0.054729762332802585 -0.0010477713443621459 -0.11571204631330584 -0.04674785710391619 -0.1896784326194563 -0.11162405417714305 -0.025796872135309686 0.028607973458816494 0.09744681561566779 -0.14668704718126963 -0.003985785471403988 -0.044344895162752015 -0.059393992572832045 0.02479006728049765 -0.12096769399477299 0.5100957065536363 -0.11194028526099976 0.09120421012782153 -0.16199677747009086 0.4573789397700346 -0.25189190817343854 -0.09224334371000491 -0.03656739939224208 0.41431075888732266 0.04164894905844058 0.056980567277490866 -0.0782735972933048 -0.09279048879483474 1.1154297197580665 1.010820493886026 0.20415050141859709 0.07672909002924384 -0.1657226968360041 0.08836924388553619 -0.2122753490878615 -0.14759476304092436 -0.1890380489023061 -0.11219896141585912 -0.004164509427417506 0.08664835711462156 -0.12375687514594363 -0.00307996970775615 -0.05322435505440292 0.1520056924116925 -0.061203942649744096 -0.15797784064521603 -0.0071148793972910605 0.007876373853610803 0.19405210734513323 -0.06569149991322214 0.09718602471499387 -0.10731092941401281 -0.21443189461905066 -0.12005502993812653 -0.06094353113696327 -0.39062199925916197 -0.12901791518380668 -0.08608628870386444 -0.15116592169918885 -0.3512061571402569 -0.05770714748187267 -0.13435117888516732 -0.26930231734223264 -0.22831939767101894 -0.12202294499780278 -0.11759539494451937 0.036591374322912006 -0.16581217238721035 -0.06732902232126532 -0.2960109842433231 0.12284095223276485 0.03628123588256965 0.1094403680271789 -0.16811238703771994 0.12051908502312342 -0.00884500800437406 -0.04330589273068099 -0.07916242658417305 -0.2914697630518847 -0.3718676609519567 -0.20813958946164252 -0.16079640685684798 -0.008058450738381852 -0.22957487143499974 -0.07588401982223972 -0.04298870467934838 -0.2040793120331755 -0.09264199375730264 -0.06940983049724289 -0.19677451298624832 -0.15881145515110923 -0.13613783148551417 -0.05719389494320477 -0.09642326696741298 0.0600100966379311 0.024292482440557532 0.07502786688219795 -0.06276270377251844 -0.011475790816809736 -0.12062313136938733 0.6631211662984502 -0.07404585181988164 0.03154810663341076 -0.19700182718606712 -0.09977515417225044 -0.15064332379146547 -0.054965815564051765 0.04199135771179015 0.07571246740611699 -0.033575115397304144 -0.015940789647826942 -0.06134574750093745 0.11657870749618049 -0.052645282812913335 0.3284980301090264 0.06793104678280815 -0.08748709485783163 -0.11268232105650783 0.06192278279436004 -0.11992239222818195 -0.10229698563075923 -0.16577145339754173 -0.10398995865192343 0.007659312618848338 0.20705391906675955 0.2283131547712517 0.03717934091537159 -0.014035899114228464 0.06379879772172922 0.002219448053251023 0.017328627642419794 0.20605913803748174 -0.029130098166685017 0.4554246668716982 0.1905503171916197 0.11263293734863257 -0.46758255508802743 0.1302846188742383 0.016871918045668906 0.16806692165266435 0.21640884127022353 0.255524128343732 -0.09070240880618263 0.11219034043342396 -0.052140522671069715 0.3033612120846149 0.022318600195924465 -0.06851894797605436 0.14378545001699042 0.09488195800819035 0.24308548054283724 0.13963893360396673 0.08998696902337 0.17349911689957584 0.039919565988862996 0.3673135875323647 0.11012215617667766 0.08793685614139735 -0.06997425736144791 0.05493516894298439 -0.02340411428102084 0.009846833303737292 -0.07500666281524146 0.0676056927128486 0.06050976019977025 0.17666172490948928 0.05911283706280518 -0.014926212993392033 -0.08670282726827058 0.1328429678832044 0.030763636357312777 0.035952827386613186 0.17719463588188833 0.2152790735584881 0.524841306148488 0.10873031981534101 0.09705160032097841 0.5161789223487172 -0.00688612876220504 0.016020575780238223 -0.0949481624290903 0.22434954301868404 -0.11568296023368985 0.044560412944472334 -0.17856871194120555 0.21855955301126787 -0.07561551528766317 0.15464707401609426 0.14065731593845984 0.05955244342864955 0.026438871323425123 -0.011207001341206002 -0.07447699930687511 0.07187353772415608 0.055806560249986134 0.02324098753080943 -0.06351664689635397 -0.08983668816020021 -0.18603327166501765 0.014712341092520209 -0.14464867331025325 -0.05056958978583336 -0.18305630266432354 0.22399076497923318 -0.14068603761211693 0.06091216132112736 0.2563609185035521 0.18511864369462624 0.10859513147884102 0.11057508535358025 0.11652391145873245 -0.016826023298295908 0.045729022960565295 0.026706743008543577 0.5810566128679719 0.012477715304739838 -0.006681583816362832 -0.06560759002669851 -0.022709345474610364 -0.1374709094538676 -0.016755586638779987 -0.14675943091694313 -0.04364190297211091 0.0242724665949818 0.007166011613916024 -0.11994963497879471 -0.12976403617373525 0.21628923979293532 -0.029245394586948623 0.004461784101745559 -0.003002614141814523 -0.04288552745997295 0.1343002309726614 0.32261627124512293 0.10934313748055415 -0.1082705853059817 -0.015634543389727844 -0.1870765997493988 -0.08104990786311694 -0.1413881952435776 -0.05539472747146362 -0.03078142577379076 -0.0450034055535467 0.01660545791474393 0.03548594933647916 -0.06849080680828284 -0.01874479359506417 -0.003732057769339898 0.014082433471792402 -0.2076826241266877 -0.046149899782149305 0.09033361715275537 -0.15626278324524673 0.3182195999538336 -0.11554621884159137 -0.21621936148707668 -0.15025727246250128 0.08189737608515316 0.060412848329430655 -0.12049458426250549 0.032154399200052815 -0.15452832958529225 -0.02624078135319115 -0.12413299394243157 -0.0033975911435570466 0.005253670708055463 0.5083325873956338 0.14559349654228254 0.07930232183504467 0.012917634027512049 0.03137509738837156 -0.0664572084933507 0.2213026089738885 0.14654019152121694 -0.019366076003573478 -0.09135086397412237 0.07358553205892833 -0.023494043243722094 -0.06918691421271182 -0.12971254828243048 0.0028204686613423494 0.1767291945185007 0.2777061854966722 0.12699469971152835 0.013110494527012302 0.033314602889638986 0.10865390967635945 0.07541506109177375 0.12035492365135395 0.02597009201510972 0.004891951123311686 -0.04472524809134124 0.024259388392218674 0.07786985527445918 -0.06476029793951092 0.14000178386523307 -0.08637114218819107 -0.09081826612451874 -0.036661731625027456 -0.18342907947988363 0.01676076481960273 0.06678884658237756 0.017668503895095354 0.17833269845527272 0.3770904466612852 0.058037589030795346 -0.01440261768235595 0.2683918295550906 0.23518885590850175 0.3574505830612416 0.29600489812536446 0.09776228502462034 -0.0073609320175550014 -0.018585185080499517 0.13411932786705255 -0.10118312536421084 -0.14037524290586434 -0.14801219530589985 -0.1180813434046885 0.11689630835885544 0.01709080102932914 0.007948253434113144 -0.024607146119041468 -0.1754290039478815 -0.03296366778304008 -0.06595174997561361 0.02222763723540147 -0.01782329335164289 0.06228895992574687 -0.06559515062040559 0.029298603057598915 0.09104959809019085 -0.03864677452025621 0.07542322672552586 -0.06010193589409122 -0.3190243038233896 -0.13355643614942467 0.0065455367914042705 -0.005588289595591001 0.12053584442966568 -0.04933841385523636 -0.48908710913817005 -0.3072493243344839 0.14610145790579632 -0.14076157461669486 0.14613899622728976 -0.06397450647741221 -0.0738192936662188 -0.11929537951814369 0.04895614223288401 -0.06283946190497595 -0.2850824763646366 -0.11782203534915928 0.013579363116016964 0.13451713457497771 0.28429788015344903 -0.15633838348924428 0.07225689185126892 0.08363061165534853 0.028409796958274197 0.09144555427153907 0.07262611113197608 -0.1687037921978414 0.11247724288645518 -0.307482987797345 0.011177086559823001 -0.1367544691974568 -0.25059094258258136 -0.03579289421665911 -0.013936184048410783 -0.29742690982428516 -0.030946512991062745 -0.1327430088163117 -0.17855864435280433 0.07587675277469928 -0.08268585365801258 0.06260089708688353 -0.09949408976998837 -0.3495452691060626 -0.07595219639729499 0.26084449351463695 -0.02932409886417672 -0.11312311216013311 -0.16881463262443 -0.17340955429429075 -0.145122580438899 -0.1784003493784686 -0.1759511358502635 -0.14583997856238232 -0.5151536264612225 0.1265715921280141 -0.3630236815232903 -0.1941828897365839 -0.13337421902064817 -0.2543884742567236 -0.11743022720247537 -0.03258620872670618 -0.072994665569447 -0.24342530445007401 0.21862883516623555 -0.011170652014971338 -0.07737503262461143 0.1618672866922549 0.06525567290124219 0.0837085651818513 -0.09687892353110987 0.021718506409794766 0.05890623352863183 0.11458040268261396 0.15906093871174443 0.05633509929471178 -0.016673267423366358 0.1936756188553555 0.32730167712522257 0.14017737426009988 0.3255026732621397 0.011723554568313912 -0.06913116204699775 0.09381323759738612 0.0590280082797723 0.09860668939863422 -0.10440782807566591 0.1024799616573447 0.1575896910491346 0.19878047373227878 0.12738869351869386 0.08379316647026763 0.11282205676234906 0.11331599030227836 0.1097787195054789 0.13699616681217727 0.11304727683224802 0.10731456208091406 0.08908545580611131 0.15427778319733235 0.14178261246587037 -0.0621190443306753 -0.08594172369890568 -0.16588110730911987 0.06762838759539873 -0.09002041184755762 0.768280133648785 0.1086747029930123 0.051597959322533055 0.22441502820754694 0.10757652007560421 0.20847570348807676 0.4555168585120946 0.15891438921554696 0.17727963689144474 -0.14675136290192514 -0.10778089210077624 0.19766851576172212 -0.035561567133732555 -0.23723110629773397 -0.028592513756809396 0.011990601436943226 0.0867021317791981 -0.0764097747910458 -0.08808845788365213 -0.09529687754123366 0.049692148315988734 -0.08352687853064761 -0.08310845620644697 -0.15083261597797992 -0.07052742020304054 0.04122131910640467 -0.026290160644163615 0.12478600172230984 -0.33445173582686455 -0.10251874907737363 0.1498091831217867 0.1137048612578747 0.2032396849513115 0.05263679887530553 -0.27657505392220344 0.09376548916791701 0.17633266844735837 0.04801077091866769 0.18330316472366417 -0.2488566768714157 -0.3139168606131182 -0.03440311342334739 0.28207323671278933 -0.12255264262444812 0.14098367676627016 -0.054188926226778046 0.09609397932448888 0.15280411808884203 -0.01736517194825422 0.14722029554929497 0.13544500396459058 0.06710789401433731 -0.08521452007133544 0.013050779900301351 0.18993766305721146 0.10574826443665422 0.13913454324011384 -0.033917078032717235 0.0885009895923117 0.10952478800122224 0.0960630857232275 -0.2163302004987592 -0.008321513724606041 0.17351461080500113 0.12193941796963911 0.21253006693623255 0.3604461392947827 -0.08215822983771266 0.16185258909962774 0.2831974255973212 0.08460523182003579 0.055976590471745476 -0.10779237006341817 -0.10602338041264125 0.0454946327933757 0.03958016127207725 -0.026273701043381486 -0.2325510669719309 -0.04069591874705541 0.3196294116142851 0.038378462683271955 0.03951282837329936 0.04914248464448974 0.136654913399374 -0.28880093172696986 0.08770704871983293 -0.08706543377303513 0.015596217127475116 0.256806174205922 -0.021081563095475268 -0.2100567454704665 -0.006810993739981664 0.17150303457174176 0.13547388140955524 0.08384502911052848 0.22406057965264706 0.2044866029976815 0.2634220683324263 0.1853858378684155 0.2916692707833724 0.384423350197473 0.10843454506646583 0.06914891022142963 0.21115620858465256 0.04248906511723539 0.0951597595491889 -0.09725542879124177 0.14652331619317738 0.16579106486384862 0.28146719813673227 0.16051027809634782 -0.10287914431463502 0.047872899662743267 0.21246098539893812 -0.06338426212399202 0.18464725587680347 0.20463230136583904 -0.06569405537169148 0.3892776039987054 0.1404276819702627 -0.20854916089479283 0.2931815062701525 0.0672052694880243 0.017970902221621985 0.07362880642499414 -0.0014295032713290054 0.08358751023507423 0.050742936021593486 0.10966263328384686 -0.015998082192368104 -0.031377284197544694 -0.04208392070591423 0.003192614825735672 -0.0898757787650021 0.01028674028671083 -0.07275536569081452 0.2730594607300285 0.20149822609735388 0.17196548215702884 -0.264273680159135 -0.024130044476817394 0.08893953219365223 -0.09021344967417823 -0.015950034134878974 0.10512151795351753 0.2218266083277 -0.06832039932701305 0.37060459144180957 0.037562292467491605 -0.008548403940738107 0.09371244052965633 0.05089256056942168 0.07260727786876969 -0.019776306618459364 0.06942209650187732 0.0635151963131241 0.142544442877251 0.036731175763803504 -0.03259969275200691 -0.07706523958073008 -0.18590393536751887 -0.10949790905294879 0.05137330243102343 -0.14467294421651783 0.12957287159252062 -0.015248335290351116 0.268593419579629 -0.16235563988244894 0.008924737641499973 0.029397225515271044 0.017377077950745872 -0.04884120091945683 0.01211110492953911 -0.06443811518433483 -0.19095234293034402 0.15030322285264555 -0.05690812382445575 -0.10245471145785608 -0.20723449613101688 0.09769801311103306 -0.14590845039962527 -0.18779331233885466 -0.3644373792088496 0.06443499392307986 -0.19702841432486487 0.11401544954304398 -0.08907123380854853 -0.07106316293933881 -0.08359657177570647 -0.05168782086171702 -0.16758463952458105 -0.06918312246420061 -0.07346489230344626 0.1235298461562846 0.04130341519594044 -0.04616570319472073 0.027664046819649204 0.11631699189360056 -0.03236696649590605 -0.2019306110380268 -0.1818002277890502 -0.15801080265210168 -0.05836867781125476 0.010673596527411958 -0.023284896710786995 0.1381032015462437 0.023667123600021257 -0.05892106756597871 0.6832046111803641 0.08409834548208053 -0.07047061051366847 -0.0791668039003193 -0.1516715310633869 -0.08995339167116892 -0.08418806232360362 -0.1280092789189868 -0.222185875768541 -0.04116507673541785 0.00436995730146256 0.1779990145305519 0.07334736160300846 -0.014554355617778377 -0.03259606476366502 -0.06264167527158201 -0.040163133029545404 -0.39632894927450046 -0.13796370854335485 -0.029250445970639288 -0.09645491910072113 0.05495463740191857 -0.31602509496438685 -0.1674068760603442 -0.018861568686743 -0.21182641994109544 0.10076379375810326 -0.13080209801727433 -0.2438087560966429 -0.273916604408706 -0.06681988855755917 -0.18060052371170912 -0.1960035185128695 -0.23505696040291013 -0.09223427246829309 -0.07506182254348398 0.25142646625893444 -0.04254932072900485 -0.08454264012130171 -0.058990120345988994 -0.0390594206571546 -0.006406914783461224 0.027595066131009316 -0.05520452932401274 -0.023884602167973987 -0.165339020431958 -0.1144896023124556 0.012716869091710641 0.18846739351453515 1.2084913939584845 0.35090354749310315 0.22851522338710126 0.13071676834397236 -0.14083163683358 0.09760237187383916 0.06559809725493662 -0.07059066233760052 -0.3163847086571289 0.05544496107038136 -0.04608513011693697 0.28355651372396273 0.03336033973829759 0.006099891206875646 -0.3018269598467441 0.039525590933786256 0.07170653951991329 0.11292835969576108 0.11398943508250989 -0.12024109902564525 0.06898302321963404 -0.030923457113900626 0.033452497922762295 0.31547173049255145 0.9118199363609453 -0.07952275733819686 -0.021017308761763526 -0.09240866643308131 0.15428883758759637 -0.3179193953308178 -0.3422950842970138 -0.22864645285853225 -0.12455072889630396 -0.010992146166620467 0.11028262146044444 -0.1368787889962197 -0.08830839210684047 -0.03613887054121872 -0.24378293864393633 -0.05192049453794955 -0.007055561351387396 -0.1885092041249061 -0.10157344229193127 -0.1435564064570891 -0.12715458107721042 -4.4551349889787844E-4 -0.9016133789030892 -0.2739131791593595 0.12993019371911949 -0.6823180176252787 -0.1552459187983812 -0.14068311022136964 -0.24948725008431846 -0.9498304591891582 -0.08865209876681615 -0.043997335910960694 0.35704016937946875 0.11181462978153214 -0.3142094301413512 -0.07551630524260056 -0.03406377901486344 -0.008742748801524723 -0.06662838332025928 -0.09357070796724336 -0.2932682026612588 -0.03874292127868835 -0.0513511188222707 -0.6028671471772293 -0.0767412115289442 -0.01736742882950499 -0.20521802440454848 -0.25029030387565154 -0.2500703174069892 -0.16113122781206618 -0.4895677028093427 -0.03749838147794426 0.07976129592470925 0.20447133417658403 -0.07477819188296814 -0.2155976307882225 -0.11018755776450204 -0.2610550433060366 -0.09872617882860432 -0.6046814281345737 -0.5872016541141594 -0.21846618916902313 -0.1375890143614643 -0.381756289526055 -0.29971471492678947 -0.19719751496997154 -0.6714524509891302 -0.6603513740818727 -0.37181745764915836 -1.031087665234106 -0.35325640280863707 0.022555554809093065 0.08245002085033971 0.2676552779083141 -0.014393886412523482 -0.2313031882139007 -0.08899712623182802 -0.35172669050750904 0.03377869271246683 0.05045209896662971 0.04163067858693972 0.04384768805897458 0.14214426949214623 -0.2755895445885733 -0.09344874329756025 -0.07066671132984209 -0.013784655274996649 -0.20313234002450614 -1.698577092283845E-4 -0.17028859769152932 -0.23571756389960066 -0.03755927163323723 0.3030735705727668 0.07345481560851684 0.10516837950397002 0.04533148449715374 -0.6385968737387436 0.04501446185063718 0.04603020703124688 0.1486254315352438 0.031413423197322835 0.10704532060547428 -0.015736293618893945 -0.02375849883329088 0.15896715231293387 -0.013285861913951211 0.08229501570358061 -0.12501174466015486 0.08534560013126168 0.197663006163371 0.33757996063990936 -0.252385513721048 0.14272127396493436 -0.1643585806501481 0.20882203939100288 0.09906805554115189 0.16966938303471868 0.22569192673914795 0.17007824495135276 0.046048170103093214 0.11435924254768517 0.001952330732931016 -0.0811306442727231 -0.10140429785899287 -0.14131382027085737 -0.057218583298681895 -0.12112836399827644 0.09726472112308569 -0.24884301182243174 0.087632927137682 -0.2474361397035773 0.03888386290581022 -0.43209309367547905 -0.01512945118788183 -0.20796099309034313 -0.17091068753227454 0.76685109491833 -0.005255243657307577 0.017622472212732217 0.054878388423710525 -0.012171348468210594 -0.06946063734296999 0.048968892710549994 0.28101857731354307 0.14360393233942811 0.16469718767419406 0.09925480336971655 0.12078804002406172 0.1695396001790807 0.15000333921203876 -0.05526845216222976 0.10387596219872466 0.051938663773479214 0.10029188391032993 0.11603916214362905 -0.060842713097097476 -0.019761269368312212 0.1366938015759193 0.22841942368160004 0.12769276979754085 0.06449499292661223 0.06825487668212357 0.15020921934809342 0.1289316213987721 0.1621444057893458 0.13741828628261019 0.09101562601888702 0.07738865839434882 0.04174844585969545 0.08856704292739535 -0.13726705019490212 0.14767607019488896 0.32391908126510316 0.224442230723116 0.13412536995569535 0.15602475928075735 0.14217874351293563 0.09426704735865371 0.21109463702438097 0.09632281358525918 -0.04149812251519028 0.4631039610318134 0.13804232011550133 -0.4428100644721178 0.07417538294509857 0.14047381617560004 0.055444962320494784 -0.1379158886988112 -0.3612970343050379 0.01545774670664934 -0.06825165306076139 0.021583361996216435 0.11915561316287747 -0.049083113324347914 0.32347344842799375 -0.07399902864141818 -0.09824168088061867 0.13464663047453135 -0.08361059886639524 -0.08901293642882897 -0.0278033908548729 0.19865229314120847 -0.23791645790140026 -0.06643412552739658 -0.0878572219659495 -0.25306633422377184 0.36949392768067296 0.14104169089689925 -0.798692914217751 -0.07220785367901103 -0.10805084353156182 -0.09516465340615188 -0.14101783981348773 -0.12749012112986255 -0.10500429590611879 -0.047069202737754556 -0.06492648626141746 -0.24099334404000242 -0.17396873719597936 -0.032498427271711344 0.14588103268376076 0.11483302528121599 0.0683764089442657 -0.016802166856233716 -0.028956673652979385 0.28430958712499954 0.185414929376539 0.38642858930489726 0.07055540503533721 0.0036624282888826293 0.22858297969266883 0.04609896585051413 -0.3036525544849336 -0.020652932221892732 -0.013077038424459607 -0.25396677467305284 0.775975163617161 0.11294143272507187 -0.03531613900062508 0.09045610112468153 -0.1655157768768847 0.019338738643430938 0.09710968785002573 -0.04336314288127851 0.9091420227955366 0.4659079312617994 -0.019340174861726997 -0.14547616613076775 -0.05580835620885971 0.0917908972078924 -0.13886681817016758 0.09681638671093624 -0.04809053544124661 -0.0401951978092777 -0.03812303422972374 0.0771807967793593 0.034238838604631595 0.15956864574904894 0.012647937722116812 0.5055458166672626 0.040222347791526954 0.023042060348877135 -0.018211881697794842 -0.057375167548710665 0.08210287332754511 -0.4788600108812187 0.3630575346513515 -0.03645591375865436 -0.046012337192898406 1.7835373170672693 0.22835421461127728 0.17000273184864945 -0.37437776123596495 0.16797652702945717 -0.003775111334088556
nr_sv 9 8 10 8 6 8 8 6 6 5 6 6 7 4 4 4 6 6 4 4 7 4 7 3 4 4 4 4 7 4 4 4 6 8 8 8 7 7 7 8 8 8 8 4 6 8
SV
0.2818476104964362 0.0 0.046662984244853815 0.0 0.06295790576674272 0.0 2.6107792846204574 0.0 0.0 0.0 0.0 0.0 2.2297456714093262 0.0 0.0 0.0 0.0 2.591402527808983 0.0 3.2169163139233756 0.979064490667441 1.9825486554270917 0.24245116307676626 0.0 0.7317962015625319 0.8788645611195656 1.9860602524231354 0.0 1.5590904203776277 0.8316121179858074 0.23775343959593503 0.0 0.0 0.0 0.0 0.0 0.0 0.537433185647001 0.0 0.0 0.0 0.0 0.0 0.0 0.0 0:0.09076272131791246 1:0.14756067092675437 2:0.22408064078231596 3:0.18164843267722397 4:0.17687892389793913 5:0.07492381069006947 6:0.08478351169477662 7:0.14235725214941505 8:0.13503479737041185 9:0.08379434688898336 10:0.31120685387748087 11:0.29751820101719834 12:0.45985742635718985 13:0.21981287166338354 14:0.4332519586529855 15:0.2941192667297613 16:0.342140476965474 17:0.542732848878277 18:0.09700927395746659 19:0.07675748341424461 20:0.0890379504093302 21:0.10004346431189204 22:0.15927863276755394 23:0.2493776709161013 24:0.10672263957156954 25:0.28881212933199957 26:0.31698331712695915 27:0.14925958072900575 28:0.10142365193832348 29:0.34644950816094233 30:0.355707723036734 31:0.09548829667263972 32:0.6412516100863064 33:0.1371755440752592 34:0.34580086827517026 35:0.40214454781153675 36:0.711795220433436 37:0.3037857522417022 38:0.11088260039883864 39:0.44212496807406365 40:0.10929585762529584 41:0.47293974040063574 42:0.3289646472180948 43:0.38026808763591946 44:0.18466458947484854 45:0.669321641011849 46:0.2855293449468849 47:0.35930679992494263 48:0.4155081685753591 49:0.25274836838165193 50:0.4613868274582561 51:0.3439297452023911 52:0.22218116708302574 53:0.5939194781493246 54:0.38902982907322164 55:0.1507772421011418 56:0.18546216484191874 57:0.21981994178344658 58:0.3103250330457106 59:0.4248088483491163 60:0.40067292881451944 61:0.4669125156136397 62:0.4269199099556734 63:0.39432666080466716 64:0.38389595789686654 65:0.22348851130071926 66:0.008101012059785282 67:0.07229239625221172 68:0.4702515683741303 69:0.2581314278009985 70:0.4754821946043745 71:0.32810834211626916 72:0.3291366117803901 73:0.6074486047204956 74:0.2579098727102874 75:0.31670356060465954 76:0.41267629601087746 77:0.36709158871860437 78:0.5554873399346234 79:0.2963157593716371 80:0.2905858987445659 81:0.32419819416110407 82:0.2646864359211722 83:0.5253134868472021 84:0.6727006117490059 85:0.31591050568193424 86:0.37555000067495653 87:0.3494562595928352 88:0.38735771017944903 89:0.26764133694179343 90:0.38163934205843375 91:0.10691345958414195 92:0.32829684710351603 93:0.35859600195035163 94:0.25850309193612725 95:0.509829731206115 96:0.373517420421556 97:0.48212565404985397 98:0.3732462214512712 99:0.3518874298010718 100:0.4549841731421297 101:0.2561084917994293 102:0.259719922570659 103:0.24172112885968317 104:0.3686159579970663 105:0.29104585863199783 106:0.5002120728196328 107:0.06522264343924267 108:0.28600976251834065 109:0.3120762366574637 110:0.49344700058292806 111:0.33909048519408924 112:0.22331854207074814 113:0.39614995701526695 114:0.1442677517709837 115:0.022569266063268013 116:0.43755897318628273 117:0.37028379210028534 118:0.33716183857655463 119:0.340983615856356 120:0.41299286708495986 121:0.5771569420083518 122:0.3741783731526082 123:0.1322971628402572 124:0.41128303390953397 125:0.5926144968153284 126:0.44518002724060773 127:0.13716877550329457 128:0.3351806400222744 129:0.34425926536125734 130:0.5471764033462347 131:0.22847456786920606 132:0.18477138933816759 133:0.42477148183976077 134:0.26485841054575204 135:0.38502119573239285 136:0.34806536756839407 137:0.3090806878306878 138:0.4787204945951405 139:0.275065355065355 140:0.5034335933113724 141:0.4303584438260956 142:0.45435166635027535 143:0.37972299917598507 144:0.41579970705988123 145:0.4603912008234718 146:0.5369968758343019 147:0.07849115047743585 148:0.4055466757085381 149:0.2761207649911711 150:0.5845065236141748 151:0.3322797062065393 152:0.2104503575661778 153:0.628450745427596 154:0.39023443435032246 155:0.21564094710801038 156:0.5361315459189193 157:0.34991088902799444 158:0.5934049067429308 159:0.5395829750444048 160:0.6141663638832905 161:0.4985671399752405 162:0.1733610837071769 163:0.4296840834505077 164:0.35040652660638183 165:0.4196718508137756 166:0.40556517907845746 167:0.4466006483954377 168:0.11925463331965468 169:0.3649745458931344 170:0.5357919537899841 171:0.4242673683028758 172:0.4430520657493465 173:0.49867765342275444 174:0.2596651253987344 175:0.35579059948555075 176:0.2839595265084899 177:0.27281472282247693 178:0.15267961798492494 179:0.5558498791941779 180:0.19901900274511536 181:0.6318145394548882 182:0.42957149464661093 183:0.2827673258233784 184:0.29508694252195067 185:0.3625097135670227 186:0.48859555957566086 187:0.3964731099702446 188:0.6099150224983277 189:0.5613307864879288 190:0.5702470977384371 191:0.4711223487728011 192:0.47772849957469105 193:0.5514717875420283 194:0.4955764379888308 195:0.5980344249497229 196:0.36263566175717216 197:0.8140233771556218 198:0.46950389855537866 199:0.3264608568821055 
1.476007464237549 4.879328787412143 1.5867269935073587 1.8152810767091123 1.3618538956033308 1.6713051420922815 0.2373018841602683 0.5496983926903576 1.0818391203126034 3.3752166052935983 0.003185935163201532 1.6533088741561999 0.0 1.5834075987022462 1.5767117107345865 1.682706062231787 1.1994519968663555 0.958016632477571 0.9800611059108053 0.0 1.0174419883047423 0.9135023573807708 0.0 0.0 0.42930338826025244 0.33584994643814176 0.588374671505405 1.464244875879566 1.8117865060082923 0.0 0.24896914985570212 1.1246931228611594 1.587067878963702 2.4649880182779533 1.1471396964197076 0.7144595432526369 0.6492497301294243 0.2255570800964336 0.30453613978672894 0.48351626994792707 2.0385611577293195 0.16505504722304953 1.4700401225244593 2.5310700486961646 0.8998403447000055 0:0.06320116969001405 1:0.11568641601031682 2:0.2516303987866801 3:0.18139475777994807 4:0.16941459257169456 5:0.12288629255118799 6:0.07720457515973138 7:0.06902892093950527 8:0.1732573438121901 9:0.127745750975583 10:0.09807725940799937 11:0.2891892652481589 12:0.4709648860313508 13:0.2876367666023995 14:0.3731787184124213 15:0.33751000488476796 16:0.2954770217677523 17:0.232082242248529 18:0.06391084147151706 19:0.12985383595428715 20:0.12594473399914075 21:0.5320549218230284 22:0.23098457915064052 23:0.2828184528464263 24:0.21270262614249172 25:0.08243613658928241 26:0.2958687067878162 27:0.13600386553908342 28:0.10837568514839682 29:0.32669565154951286 30:0.38255305702828235 31:0.16408700604485368 32:0.37503669227037384 33:0.2554213232263918 34:0.3854045522777101 35:0.3562366541033826 36:0.11989876120073097 37:0.23089181434637293 38:0.17553237020509213 39:0.31932521664607977 40:0.17567897411615999 41:0.4809930501509662 42:0.0 43:0.36950791122503257 44:0.16291193946339472 45:0.38332247835029054 46:0.2569496621637765 47:0.44270704693576096 48:0.4200350858031448 49:0.2804078979133119 50:0.5158751507294599 51:0.3515541150467719 52:0.25935734217301987 53:0.5362544760969671 54:0.5002229960700991 55:0.056361516144375304 56:0.13231513259357186 57:0.23554253040429093 58:0.3175002927281053 59:0.345081279845671 60:0.2598653027906833 61:0.41608056597941273 62:0.35580773840679547 63:0.39573317351264076 64:0.35941399299489746 65:0.21163277484516557 66:0.22080394651294086 67:0.19426223321439215 68:0.494678809270472 69:0.21789897495699584 70:0.48787187256978165 71:0.3443308266077151 72:0.29519651812683967 73:0.4202058051505492 74:0.39478372725995525 75:0.1399142384625851 76:0.3054530898221489 77:0.3737309187157385 78:0.5671843243179373 79:0.22483834367901082 80:0.2694987070262553 81:0.25707874982576834 82:0.3510178528126765 83:0.6135837969777359 84:0.5538517401781725 85:0.18695926684580247 86:0.5142703669115933 87:0.3545083516405925 88:0.42976390504687423 89:0.3547253518467466 90:0.4234039174115728 91:0.07774815798929353 92:0.3606447200552602 93:0.31130228761877665 94:0.33021581581745163 95:0.4751269102667075 96:0.4794538746375028 97:0.5039025578763161 98:0.36496159257938576 99:0.38323452089928006 100:0.502054676916178 101:0.3364822676718111 102:0.2752143772347169 103:0.2228329741758412 104:0.3701287136360925 105:0.5770952903665821 106:0.47607679003762615 107:0.13827166252508863 108:0.3289199058354922 109:0.38363199717070295 110:0.4874597924684834 111:0.34065727346214714 112:0.23953738784492848 113:0.44729252986542006 114:0.3238393686440117 115:0.04366410820025451 116:0.3605563843409285 117:0.35260807858766074 118:0.30403185505917324 119:0.3425404874014628 120:0.34101416944720336 121:0.24709838454954142 122:0.5122390322142487 123:0.29918987596687086 124:0.45975610786159066 125:0.6362907892386276 126:0.43580649756870166 127:0.32123709246502324 128:0.3981838521167151 129:0.33983106904792365 130:0.3791515277357951 131:0.31738300247188506 132:0.18198164530120411 133:0.3942051747327618 134:0.22522164971982478 135:0.4164431866770395 136:0.15436403037977042 137:0.3531341699944515 138:0.36025389000710467 139:0.3075353218456506 140:0.535267123383128 141:0.3274566656551209 142:0.3985085464684327 143:0.4356869654412814 144:0.2953484336893272 145:0.45131169828765644 146:0.5642330763394947 147:0.10417592150668958 148:0.42745452889349245 149:0.19069859357671867 150:0.6391698926980633 151:0.3361628263567716 152:0.09722632763647487 153:0.3863451827775345 154:0.4349737598410983 155:0.2100813631143875 156:0.4131672902606752 157:0.433803091063511 158:0.6690260165900562 159:0.5682296599588506 160:0.5302970934156745 161:0.4593980545055153 162:0.3383564117515436 163:0.42927710647571093 164:0.3205975923964393 165:0.3490419345282397 166:0.40674298001443676 167:0.45598802568135255 168:0.11348328353851464 169:0.22250455333673988 170:0.5732257731227361 171:0.6340660972293525 172:0.48097062727120365 173:0.15988978526125358 174:0.2653912852557332 175:0.5025234314319815 176:0.2985884433255741 177:0.284518058052727 178:0.20248400197314628 179:0.5832232625963174 180:0.15222558505698752 181:0.12159706945317411 182:0.5275429583040374 183:0.33506928855793006 184:0.24750794297975146 185:0.5207749515747595 186:0.4767378074992037 187:0.4965247567021661 188:0.4236236644973753 189:0.5078028991746244 190:0.619887304970675 191:0.4710057139826406 192:0.5901969515918063 193:0.4814047462249158 194:0.4929985420951072 195:0.23049520227313322 196:0.2849642308186005 197:0.6153727405196153 198:0.46550591725766416 199:0.17449619352645473 
0.0 1.0390079415265445 0.0 0.0 0.0 0.0 0.698067515582466 0.0 3.0952360781197212 0.6865090464771139 0.20531381431657603 0.0 0.21375452484242233 0.0 0.0 0.0 0.0 0.0 0.0 1.8759012689955674 0.0 0.0 0.0 0.0 0.0 0.0 0.0 0.0 0.0 0.0 0.0 0.0 0.0 3.6032779419871095 0.0 0.0 0.0 0.0 0.0 0.14285823167425887 0.0 0.0 0.0 0.0 0.0 0:0.07005503418952791 1:0.10198899810588877 2:0.2711670087116418 3:0.17914348836461344 4:0.1968121612063368 5:0.08981588973067815 6:0.14909270100911923 7:0.1422003668669407 8:0.1607472432516321 9:0.03816360473503045 10:0.26690441774593276 11:0.40449259229066226 12:0.620387816509153 13:0.39536809415120566 14:0.4572318093990821 15:0.4300399262140365 16:0.3235083578668434 17:0.5044497104013631 18:0.03714368115296423 19:0.06644469440277108 20:0.10642687458428873 21:0.5457787689210071 22:0.21815655563380984 23:0.26149818060147695 24:0.21218666790412805 25:0.3966727815584056 26:0.320220870492114 27:0.20191355029311786 28:0.17925421607425085 29:0.3087576076349012 30:0.3282148123609392 31:0.1847508673083822 32:0.5389322898383231 33:0.1992711795661912 34:0.4291418013642321 35:0.4379339753175253 36:0.4203757066116151 37:0.25990008628607864 38:0.3777622670210859 39:0.31390210149459613 40:0.1755685174702737 41:0.4202570165924856 42:0.4662089111771436 43:0.29243926144270893 44:0.12706715664539533 45:0.7307096806537428 46:0.30424863447702094 47:0.3337908462917938 48:0.7674083724234508 49:0.2710830889227819 50:0.2953649235805256 51:0.35442352839109664 52:0.2131563859989313 53:0.5519129147757617 54:0.20906927217431584 55:0.3062673244398303 56:0.29835775507759976 57:0.21245711180878968 58:0.29206453528051113 59:0.5635498190509284 60:0.2527495022017159 61:0.44370813212207555 62:0.4785796758985894 63:0.3567422163586378 64:0.3785055967992568 65:0.2068943032272512 66:0.3803621716330554 67:0.25879898431083037 68:0.4894661875951859 69:0.2152888838976676 70:0.48948061407658044 71:0.3535307409387603 72:0.32588532877483717 73:0.4567468303822759 74:0.3066093410405495 75:0.13354622164464605 76:0.5421993125365027 77:0.3935300143799288 78:0.5467352746639595 79:0.2787997140331421 80:0.2922857974902372 81:0.3340636382057663 82:0.3199017835280946 83:0.7526841295583526 84:0.5897005380398546 85:0.2601207180090619 86:0.5156925727928799 87:0.4203906906038572 88:0.46866262302214734 89:0.27353545847541627 90:0.4767415762017754 91:0.1049403668428969 92:0.33603621113979437 93:0.29951790390346494 94:0.33115069018572674 95:0.47181905726358964 96:0.6214009890906521 97:0.18730192887163616 98:0.44323899403318834 99:0.3490211752204404 100:0.615090416423542 101:0.3273333893931912 102:0.2516139923659638 103:0.2756564303808099 104:0.3917056887524916 105:0.510412440265752 106:0.5652758318751153 107:0.1552995736791375 108:0.3062153651408303 109:0.38010358608288897 110:0.287963589396596 111:0.33726492032488076 112:0.42694045042212525 113:0.23056062979321248 114:0.1631388214715726 115:0.020975320454762046 116:0.4153449764623135 117:0.3796396294137146 118:0.37983150824385803 119:0.2823026624052195 120:0.42882253044052504 121:0.5621342684776929 122:0.6023447088930242 123:0.41011344314995646 124:0.49485015710254604 125:0.5947887268532309 126:0.4283765128539723 127:0.4761557673400879 128:0.398178040360221 129:0.4187806395382105 130:0.4079103416795514 131:0.3629724043286232 132:0.20082531775562562 133:0.4959503810998124 134:0.2857024740301562 135:0.4617251516033439 136:0.24116540501144873 137:0.26910792932078414 138:0.7654684672611508 139:0.10126457973149648 140:0.5430019940385038 141:0.45890223616204673 142:0.4913215898158955 143:0.5285967884373872 144:0.4025621043700336 145:0.498663447489466 146:0.5706445886209071 147:0.06650870772264539 148:0.4345461342312232 149:0.18688140587361177 150:0.707013348831522 151:0.4314451234811444 152:0.1443717513708041 153:0.31766680588773655 154:0.43159763513510835 155:0.24904867290144794 156:0.6871344952825773 157:0.4310265959191442 158:0.5111081898079872 159:0.5503886172068956 160:0.6552027385889699 161:0.5859351528247563 162:0.5786248680053411 163:0.40300183943792567 164:0.1951294647863702 165:0.45653523685024355 166:0.42801844658628846 167:0.49554869622725417 168:0.13068517110954062 169:0.31102116522063367 170:0.0727246256499639 171:0.5959827573870778 172:0.41848677734495 173:0.5623564610260388 174:0.29634253474365513 175:0.24651069845547474 176:0.32612371068620244 177:0.3387935082192966 178:0.23931299110723134 179:0.5772003700059807 180:0.15107196183707056 181:0.558277731604987 182:0.5636340718153867 183:0.36086886388176276 184:0.3171990596570005 185:0.5413909114493696 186:0.4966540848317238 187:0.48911431094616903 188:0.5382540239565214 189:0.5151544280446773 190:0.5811929251612773 191:0.5218536994332612 192:0.5790973908533376 193:0.6376415649145399 194:0.6158216627543135 195:0.7120714684063352 196:0.351265597529566 197:0.7999759394356966 198:0.4108688315643419 199:0.1423575278064442 
2.0016465046291523 4.808468774141234 4.428814472412984 2.557503290302372 2.0532646866065707 3.213275537270278 0.23961503417329175 1.910261810657757 0.0 3.0566584490101403 1.4787112322258449 1.0720679050116493 0.2044259425880556 2.3359699078495346 1.7947949186911445 1.6838714670301291 1.96104202601271 0.43801401898750386 1.997608087284576 0.0 2.099084810809498 3.5741732917880396 1.3316426749908328 1.292789131159302 1.2355852246474348 0.8424531333807518 0.9492015070821865 1.7590934138639678 1.1544930389380796 1.8549694673147952 1.4612274414005415 1.5754651724601554 4.098127446428651 0.0 1.9799146142862856 2.085303326528631 2.585314682025 1.0950888481693761 1.8026311092829892 0.5975298309556321 3.176551301395503 2.200259180128551 2.2514130337918252 2.8672604629278307 2.183813733384331 0:0.0780164006275118 1:0.06481480347007071 2:0.24036772801563444 3:0.24733692464201365 4:0.1677152011988335 5:0.05178899876549144 6:0.15728046115908403 7:0.009963449043416716 8:0.11352063887242658 9:0.18279285018047597 10:0.17569291744426696 11:0.2893823866753095 12:0.1499625351925541 13:0.23138951141324385 14:0.45517856562680825 15:0.27093279696384637 16:0.3081638410458819 17:0.5080265490814724 18:0.03970567651278882 19:0.07277919854503853 20:0.14600375131249313 21:0.3000707071379404 22:0.1737405621788013 23:0.30362063529509664 24:0.16664616412875147 25:0.16194820651975664 26:0.4408680113500915 27:0.148101519048592 28:0.14151960474404202 29:0.3852355932085958 30:0.38244654510620146 31:0.14086115893078824 32:0.6154289228048722 33:0.2555158532142201 34:0.3218201446670487 35:0.256514606065687 36:0.40431732983814556 37:0.20860543989151523 38:0.5331587837731748 39:0.4699895289078888 40:0.08248043487525523 41:0.36708365053731584 42:0.3330961894126858 43:0.2825961153863444 44:0.14216509479342013 45:0.09726978557064697 46:0.3052912415526071 47:0.4186916521965304 48:0.23345862328261147 49:0.20593336580610663 50:0.40961301530991195 51:0.3472637482262379 52:0.29392450211947196 53:0.4400876628371622 54:0.4589572122403531 55:0.1150503859107433 56:0.25826457044742873 57:0.2070211774006697 58:0.26401955236321056 59:0.4308222543184809 60:0.3400515960778178 61:0.45082971737225463 62:0.3949216248045633 63:0.3871919135931894 64:0.38328921216591033 65:0.2131329238359988 66:0.12587035103797625 67:0.10792279084470062 68:0.42281191075791 69:0.2253649035044866 70:0.3484188998895255 71:0.3376868054250381 72:0.29313031779545634 73:0.5471835898216184 74:0.10440386184977898 75:0.2263194867678297 76:0.26609103936202483 77:0.3489446947226593 78:0.5796652445327912 79:0.22909889554393875 80:0.378550618311856 81:0.39163217516792603 82:0.28106750563096855 83:0.5911841772515796 84:0.5174655351069998 85:0.3720654268919392 86:0.4067687140608893 87:0.35457579142579077 88:0.2576894733747828 89:0.319541148649483 90:0.40672856769133836 91:0.1109933088873623 92:0.301486714223085 93:0.32054172067886966 94:0.3048709748876777 95:0.2908987101464863 96:0.5200665774694349 97:0.6422572997376241 98:0.3647571771251651 99:0.4091879993093808 100:0.29199165499524005 101:0.3216152131808845 102:0.24842130179256344 103:0.26774662746778216 104:0.3487105512879021 105:0.47673189536343663 106:0.46640488192747953 107:0.06995478337739239 108:0.2658050845200018 109:0.3654547405686156 110:0.27348463071903995 111:0.29877321687777325 112:0.37133865125411725 113:0.562281036812277 114:0.2129756332549826 115:0.03233693670774082 116:0.31897930459684104 117:0.405014790135589 118:0.38011337445423005 119:0.3279273449698094 120:0.45973881061750366 121:0.5083100932449223 122:0.38698746842087045 123:0.20262217549627506 124:0.422141477846415 125:0.5822127837421527 126:0.3798721097580614 127:0.34992119255341153 128:0.3120149665805321 129:0.2775215928337166 130:0.44595161844680553 131:0.208962804227103 132:0.22933182297849686 133:0.38700282216854637 134:0.23503185018400014 135:0.41575956531148794 136:0.19799705052104086 137:0.6100147736494782 138:0.5529508173922623 139:0.35554518103537713 140:0.5114277959733879 141:0.34666149729571716 142:0.4461004709207662 143:0.41220504883630027 144:0.3303366496294431 145:0.28296777239740856 146:0.4948106172080623 147:0.1223847266365902 148:0.46181169325768173 149:0.2815889396664179 150:0.5039698967489915 151:0.3366910110516583 152:0.13014027388499508 153:0.43557716511023803 154:0.4166383482804989 155:0.21718823724835706 156:0.3916811416212302 157:0.34730876874457656 158:0.6058210983307755 159:0.5364927283982113 160:0.6219008598046905 161:0.5503327899748673 162:0.16901669135946565 163:0.3835210366107339 164:0.2750574929216954 165:0.3635375659160181 166:0.40843477978257703 167:0.47005751451014394 168:0.07908138665331921 169:0.2063719577368591 170:0.6226851851851851 171:0.5342165022226049 172:0.38498584369441374 173:0.46872490803217104 174:0.3216511375156718 175:0.23851902674138098 176:0.35061654354007404 177:0.15874497709017382 178:0.1726374223890882 179:0.6045781046585333 180:0.13745388211297596 181:0.2573159711167516 182:0.23257372428788628 183:0.36952064705199567 184:0.33525826457732083 185:0.4305114865278682 186:0.5309849662733591 187:0.4241477410761901 188:0.47102570516512476 189:0.5257276055187594 190:0.47273008396672345 191:0.35023640554635216 192:0.47890889131672876 193:0.46267253779474316 194:0.4985495641206975 195:0.5608127194116425 196:0.34386196283119125 197:0.7120949444182223 198:0.4195172101913638 199:0.31425996628668107 
1.3780349158891572 3.331741196821155 0.0 0.0 0.0 0.0 2.8523081444862575 0.0 1.9772057398814067 0.0 1.7925271876134203 0.574697221960838 3.009410455527109 0.7185985796467884 0.27528078572781556 0.3670414108554687 0.0 0.6746661723085418 0.6335160921847478 4.281085299431226 0.0 0.5288002576116018 0.2225943592695569 1.0356947263406002 0.07312034950113303 0.8387547021336302 0.08770615198951837 0.311904143087124 1.0187394688890676 0.3386160855623778 0.0 0.21405768158580302 1.018364189262691 2.737726398946124 0.0 0.0 0.0 0.4507539474312746 0.0 0.658416210791933 0.0 0.0 0.0 0.06323933563657008 0.0 0:0.1045049864655052 1:0.15768574397822696 2:0.31379761573700915 3:0.17677847383625522 4:0.21114221982257494 5:0.06883750284020423 6:0.12256606660735486 7:0.170932145296745 8:0.21485183651654946 9:0.08829506871552245 10:0.3560108021400234 11:0.3240463574130796 12:0.5311207580753958 13:0.25013926798431313 14:0.3499429757838663 15:0.44699367611899543 16:0.3562398057289494 17:0.49036908141743146 18:0.057962881987836216 19:0.13360923586362908 20:0.11167554469898552 21:0.08873873524305173 22:0.11086586938312856 23:0.2577856903409408 24:0.32663863661033854 25:0.3271240285901219 26:0.2845624793806659 27:0.170838518563965 28:0.1343449470650038 29:0.3760781937548316 30:0.39167671337755594 31:0.12782620096192943 32:0.12147044030959779 33:0.20621577724714724 34:0.37143937758535694 35:0.34900571140313474 36:0.6232928784908354 37:0.32696347792257746 38:0.584521413722942 39:0.40463751024061584 40:0.05009593162738988 41:0.4648560502066881 42:0.5376642540442638 43:0.32358398161449914 44:0.145187061383457 45:0.6993060487515165 46:0.29253756791864505 47:0.39636610096899244 48:0.4107122960986059 49:0.2539729076780488 50:0.46556348613663795 51:0.3456188882653345 52:0.2834063529537822 53:0.4453567796988639 54:0.5032105865037929 55:0.3156891034760355 56:0.2448498042318193 57:0.2656803534651842 58:0.32142113920074966 59:0.5543556067732269 60:0.2503364631556848 61:0.443200363112872 62:0.42759292594611953 63:0.4335983874210375 64:0.33130449004838886 65:0.19680033724769233 66:0.11783403547147359 67:0.2303550791406077 68:0.42665146884781224 69:0.24946132299073479 70:0.520883129623223 71:0.31446852464323094 72:0.31398652771902275 73:0.5493259950729651 74:0.3232926118614243 75:0.23087187440980533 76:0.4694506243347022 77:0.2938160068661116 78:0.519707768143567 79:0.25985495636275135 80:0.3069811366925458 81:0.4674085866201486 82:0.26808854613519073 83:0.31653302943721723 84:0.6003015209901545 85:0.31877994328803333 86:0.5323549374880224 87:0.30973477523170423 88:0.44227659520648993 89:0.36616902816394087 90:0.48221353160360664 91:0.08553224373737733 92:0.30945611190886735 93:0.3862157138490829 94:0.35410214690548303 95:0.5334393930799534 96:0.4767874286446829 97:0.6388819283343214 98:0.40662356967856694 99:0.4143099515386392 100:0.4841354273994344 101:0.3560611226488778 102:0.25776081329264716 103:0.23419690196697454 104:0.4199838149683651 105:0.22203256742497673 106:0.3848487508517822 107:0.09639174291516206 108:0.3139977245668492 109:0.4520657545463254 110:0.3034976069663949 111:0.40337396230539885 112:0.37579433655812966 113:0.6027796233360397 114:0.2793303057331221 115:0.050160783171750094 116:0.4606775481041225 117:0.33289208577931806 118:0.32500362877144007 119:0.35509572305778003 120:0.3080716391136503 121:0.4081786917284005 122:0.3962083542781095 123:0.20805842804215183 124:0.5000817508989674 125:0.6417289132979341 126:0.49111084764418095 127:0.3863015995961046 128:0.364022711277684 129:0.3417029029896495 130:0.6074561026322401 131:0.24288506825751235 132:0.20278748054863055 133:0.45068562145518376 134:0.29343187206774357 135:0.41871576992842724 136:0.24178445913303429 137:0.7007170542635657 138:0.5180366183882589 139:0.4755807172796123 140:0.5385066651324941 141:0.4767295270231134 142:0.5012245376864046 143:0.44748157115552833 144:0.46187065076963607 145:0.46888789281023746 146:0.5550139200058751 147:0.05597073795896633 148:0.39561235362370145 149:0.21502801585590514 150:0.5850547274213792 151:0.3666260460939649 152:0.14100482293453562 153:0.5365194906710475 154:0.3919875454987254 155:0.20920873541562357 156:0.6635654726195164 157:0.4713496229376014 158:0.5978807320828665 159:0.496800294585326 160:0.5728260362105316 161:0.5599175921747057 162:0.29907692096260136 163:0.4419147683114203 164:0.19618325108825516 165:0.4805798372289362 166:0.40290161565998117 167:0.4964541320144414 168:0.10410836685487121 169:0.3066496517571213 170:0.5797944667785743 171:0.5893142382405634 172:0.40884623076151305 173:0.5240683145936682 174:0.29318003795597253 175:0.36547807305468266 176:0.33205751578532694 177:0.3279598586209564 178:0.18191242884541448 179:0.5261129850277677 180:0.2272808586762076 181:0.5011460269060216 182:0.4511488923866329 183:0.282371621464074 184:0.2536171037830455 185:0.3368944685607854 186:0.4235463018836517 187:0.5235143487175506 188:0.47088553881680695 189:0.515911052362785 190:0.5862838206673163 191:0.5619511064308461 192:0.3569983545974738 193:0.5396426551648692 194:0.5430757236399804 195:0.42939362397438624 196:0.4061158887283893 197:0.37928407491288874 198:0.4366930600891868 199:0.2740275916494079 
1.134291076819941 0.6813586601704971 1.53897814863533 0.22485761090948725 0.5494584775156649 0.10574882140182558 2.64498050690644 0.7885392112439393 1.7607789044959257 0.29607346764340625 0.8442651133673273 1.1510252766166562 2.1017553852678827 0.13610697796560614 0.12233462323124072 0.0 0.0 0.716376747356495 1.0987281217223033 2.475155022778568 0.14525257792498342 2.0399864887019223 0.7522704332286446 1.512831920996148 0.8804708523287581 1.5076029014419443 0.0 0.0 1.1539754714526846 1.1563497135251437 0.45693838902934153 0.1362520357439184 0.8782265177543235 2.2544859482538286 0.0 0.0 0.0655806522493988 1.3104478972471132 0.0 0.1932955949896389 0.8505822728541662 0.0 0.48385744067950825 0.5091017038156456 0.3491903800097138 0:0.1023952638422748 1:0.14269050346858927 2:0.2345849738650954 3:0.2525054091138704 4:0.1206572611818445 5:0.07221503763602921 6:0.07532253585431405 7:0.00732332060217126 8:0.15331216307410236 9:0.053927717022006744 10:0.10271741753130115 11:0.29610003302186455 12:0.5324738122569469 13:0.22921571955034992 14:0.37414152136452894 15:0.25312338378899546 16:0.32775332879452135 17:0.40275523977863437 18:0.023648399406068176 19:0.15173865381495985 20:0.09568428459151304 21:0.49624750286518865 22:0.20378392266747705 23:0.33742899067394244 24:0.27243065635021957 25:0.33456971910265737 26:0.37329215558893564 27:0.21350856404035037 28:0.14201606624963953 29:0.33520198516073885 30:0.3808315051383969 31:0.15297533745269903 32:0.0723241023804215 33:0.15605785886267895 34:0.3618746716548818 35:0.3626953193125583 36:0.5888198416271967 37:0.1406319257643112 38:0.22867175671662252 39:0.3318566172848619 40:0.10872976516710597 41:0.44883473137001706 42:0.25747299671190915 43:0.3680569564441013 44:0.16914037829253903 45:0.6199565103105246 46:0.31531540081506493 47:0.39134745102507823 48:0.7414162825214048 49:0.26386148568493106 50:0.3147612735893609 51:0.3820423584344936 52:0.26921231513333266 53:0.5847067437564197 54:0.3502133936407534 55:0.18224184914092645 56:0.2614290261459374 57:0.20637215004505347 58:0.30141329041444864 59:0.6190691148741083 60:0.3548587541177922 61:0.4564916074652068 62:0.4266081683666128 63:0.3753160850652118 64:0.4315940424526265 65:0.2262674723249524 66:0.2932592588471258 67:0.288675686952718 68:0.5033414281992589 69:0.2254849480178523 70:0.3817453957290261 71:0.3984855904780275 72:0.31808321477479434 73:0.33306477903409903 74:0.34435314670244666 75:0.16985083171258525 76:0.38496554194430405 77:0.34438637495092056 78:0.6189394220416075 79:0.2532954921245671 80:0.34833801928083435 81:0.3424971936233235 82:0.37710752159326894 83:0.4036826591683825 84:0.636793916762711 85:0.2539063037411319 86:0.4668498678006422 87:0.3331414961492795 88:0.42703344651154407 89:0.2655263768443045 90:0.4077889294318181 91:0.10555042523579575 92:0.34601646430523414 93:0.4352279641627517 94:0.34604819675783893 95:0.49203545294668993 96:0.2550568851785161 97:0.3755242228724422 98:0.3663696878529043 99:0.4283036705653512 100:0.5359449117979181 101:0.3412135934254905 102:0.2685315868331049 103:0.26817286322156325 104:0.33690380909511186 105:0.5057457063166537 106:0.4310512222610388 107:0.13889165931026418 108:0.29392374865830895 109:0.3347122820973195 110:0.5119774257874478 111:0.5011092662520317 112:0.4394099470896899 113:0.4105214245334693 114:0.20275919102259213 115:0.06591303916432639 116:0.47209509873174715 117:0.29674284787839367 118:0.4101327488290472 119:0.41293549579199296 120:0.42130077448727427 121:0.33162328030817034 122:0.4940141457322483 123:0.29722264308351787 124:0.4051431659078489 125:0.647644790355001 126:0.39186249012719 127:0.0 128:0.46299105194386747 129:0.28315909314370225 130:0.39717821905786516 131:0.0 132:0.18454835845079345 133:0.48096989408802476 134:0.21154439777127745 135:0.47085328796469894 136:0.2417133652911188 137:0.2820592270917201 138:0.5101573307563422 139:0.15224496261368853 140:0.5636098673420207 141:0.41701191500910706 142:0.5092634884429752 143:0.4271613964075831 144:0.4018664034589772 145:0.3949284009796391 146:0.427635435284994 147:0.06292234423025214 148:0.4571399663098917 149:0.29157221325019317 150:0.6204597292978128 151:0.41635712686249887 152:0.17561403508771933 153:0.505873754136932 154:0.42320049701899415 155:0.34184121053211136 156:0.4638851298257565 157:0.32606573535628036 158:0.5926520910350115 159:0.5644513013229745 160:0.6646767856625504 161:0.5692097570948411 162:0.447104175479798 163:0.42040250407966934 164:0.3428831875386297 165:0.355532207918125 166:0.3914490247787024 167:0.5269916902392513 168:0.09420325788040602 169:0.23906732697752045 170:0.5512316871509204 171:0.38337609329569483 172:0.5444197070555945 173:0.5167599341174546 174:0.3228656447810022 175:0.46048243448673265 176:0.27779050282677176 177:0.16280894472223462 178:0.19995617083520845 179:0.5500482016718679 180:0.3025499051105345 181:0.733816534626274 182:0.6037463514288464 183:0.24658232118819404 184:0.2613167384889836 185:0.5343860846603792 186:0.5607552650486299 187:0.3894327682323739 188:0.4817714882788502 189:0.5191218251315598 190:0.5478954619924271 191:0.4718404723840073 192:0.4577053137302878 193:0.5939121369186802 194:0.49885506918525413 195:0.5025882148811747 196:0.3359205051544032 197:0.5049692978765601 198:0.43601146860782414 199:0.0 
1.8694791053971391 3.6659564052194082 3.0367919492104742 1.9675466763703642 1.2320773040920687 1.222887441146436 1.1075628268691393 1.729249968863452 1.136905124769031 4.707308057740412 2.1213173263209533 1.8104478813246159 2.347357806072898 0.6386330325207419 0.7481536660436806 0.5139119327989811 0.8476168929350238 0.40545191644438683 1.0012849237163857 1.4737167836792964 0.4069758530509455 1.5496250495014954 0.82104432649953 1.6278662415813674 1.3268391646798912 0.7816968951702016 0.4681111784200911 1.3028823627985242 1.477146243650475 1.0661064077831892 1.0963990517280675 0.7987923258217456 0.35496831967302817 2.8438991115878665 2.8427376625458494 1.9321374819606776 1.2771216633894453 1.1574678484650016 1.1849152488112622 2.0260354515318095 2.5059449715902233 1.4735384752923066 1.1213627024846158 0.8804864327002082 1.777058107571033 0:0.09839884222121612 1:0.118731414965665 2:0.2616793808944302 3:0.22638816085016555 4:0.16609052979139247 5:0.08050625968611995 6:0.1647769873338481 7:0.2693938194415287 8:0.21129087747940134 9:0.0776517474414818 10:0.0580474206290572 11:0.4183197095623024 12:0.4873289389100461 13:0.1182201022362341 14:0.2886189931750521 15:0.2965166432422572 16:0.395039895428387 17:0.41631469581147706 18:0.051831180176121754 19:0.1252733268281087 20:0.07197783765244059 21:0.38957398456576164 22:0.16831070592300126 23:0.20998252445896864 24:0.08974876584750613 25:0.317785034996121 26:0.33863073715125136 27:0.19374961037451377 28:0.1373575009601866 29:0.3286650409373457 30:0.2837199457627118 31:0.26637522440805644 32:0.5943995289232789 33:0.24449229788454543 34:0.41244970955402116 35:0.4348257561485826 36:0.5415838263014786 37:0.24295031883180346 38:0.47836221509515797 39:0.43805180724538484 40:0.2611847167824242 41:0.37519164009197525 42:0.1806993613358873 43:0.4027786051611303 44:0.08825065784088465 45:0.23280293067003485 46:0.26851238125459265 47:0.38664549246567326 48:0.5109312051368656 49:0.2925076713406371 50:0.5174343380262124 51:0.3154536114796822 52:0.21315395429535192 53:0.43042600502518524 54:0.3093460512879581 55:0.24646493100679334 56:0.2871225274898238 57:0.18705717686471524 58:0.31211664087923924 59:0.6295299436593581 60:0.3695214968048701 61:0.43019628503497387 62:0.40277317879461605 63:0.31090795034776875 64:0.3544755295828238 65:0.24602715404888112 66:0.1870921887334352 67:0.31686917263883657 68:0.4850458982961457 69:0.2230683925770494 70:0.4228590387924661 71:0.49109273519785146 72:0.30758366247596314 73:0.4195846219091295 74:0.1944469314787674 75:0.2888945668247846 76:0.4853133512706951 77:0.2634728661048624 78:0.4771296807359688 79:0.29958451561560834 80:0.42335008612288283 81:0.32812050217215744 82:0.488268713475585 83:0.44584600196540447 84:0.604795327753005 85:0.35662772648222074 86:0.4499087434156892 87:0.31554919980239604 88:0.4441444451659665 89:0.32617399471889363 90:0.447711078711979 91:0.14913376080227136 92:0.36499171861384955 93:0.39981170629987783 94:0.37104670577318816 95:0.5347843179822662 96:0.3323410706616614 97:0.5042598903287543 98:0.3642848870016636 99:0.4139683277790695 100:0.3531195041575843 101:0.3510019508208818 102:0.23297587348980847 103:0.2251330798547084 104:0.23955360374301604 105:0.43212568926854644 106:0.4780824581313526 107:0.10475274948677375 108:0.3059630977184805 109:0.22654592222560213 110:0.399546472267736 111:0.3730116975538809 112:0.32711691648705504 113:0.5690543759596576 114:0.24012471841415617 115:0.06176515307276332 116:0.4672347560276827 117:0.2954106163956432 118:0.3414761791840617 119:0.40524508772170725 120:0.47187509544350587 121:0.5666521812741456 122:0.4779477322088494 123:0.27657743851605987 124:0.4574492426512907 125:0.5903536486764842 126:0.3859541956387437 127:0.453295364420327 128:0.31598479201620455 129:0.3004317784955009 130:0.5898577177907893 131:0.23733250830849778 132:0.37936517565318706 133:0.503327336865931 134:0.3148102407101903 135:0.48281146804876673 136:0.24432776972122744 137:0.6287715076361562 138:0.39691370139652254 139:0.10444867528842276 140:0.4287758044207395 141:0.3833187163383409 142:0.4154475259736823 143:0.41560638937138483 144:0.46588263785363326 145:0.5640485478704501 146:0.5006918470746909 147:0.034143940536949816 148:0.4306679173701113 149:0.34823849233559345 150:0.5779995037074881 151:0.41390078473500347 152:0.2748391682251276 153:0.39493092214229264 154:0.4018607394694223 155:0.2202149011007287 156:0.5322302226463712 157:0.24775290130336092 158:0.6229138542197896 159:0.5059614152246058 160:0.5653328548708361 161:0.5181021414955245 162:0.35875073278647707 163:0.4212092490480262 164:0.2166060705476939 165:0.47679722433212207 166:0.39303252353360796 167:0.4287664518114128 168:0.14883555959526512 169:0.38768523507005626 170:0.3162618152883877 171:0.27288318436991554 172:0.45802338883915905 173:0.39818036693401365 174:0.2579552594675916 175:0.3723054825567172 176:0.2480398440010538 177:0.16879860465273414 178:0.24858294392973226 179:0.6343398005426992 180:0.2557071302083332 181:0.2024763881328436 182:0.5288404998103371 183:0.19928715431573116 184:0.251841712588457 185:0.3142928814878614 186:0.45457950309321205 187:0.40258168432541835 188:0.41540578557984603 189:0.479982132388219 190:0.443978891574099 191:0.3796619566643324 192:0.35560615207700225 193:0.6131525117290608 194:0.5999471639387366 195:0.721959455055081 196:0.40443340704609027 197:0.4950379594662566 198:0.5087980440008437 199:0.39607946617047757 
